<?xml version="1.0"?>
<opencv_storage>
<my_svm type_id="opencv-ml-svm">
  <svm_type>C_SVC</svm_type>
  <kernel><type>LINEAR</type></kernel>
  <C>2.6699999999999999e+000</C>
  <term_criteria><epsilon>1.1920928955078125e-007</epsilon>
    <iterations>1000</iterations></term_criteria>
  <var_all>1764</var_all>
  <var_count>1764</var_count>
  <class_count>10</class_count>
  <class_labels type_id="opencv-matrix">
    <rows>1</rows>
    <cols>10</cols>
    <dt>i</dt>
    <data>
      0 1 2 3 4 5 6 7 8 9</data></class_labels>
  <sv_total>45</sv_total>
  <support_vectors>
    <_>
      0. 0. 0. -5.50215118e-005 -1.60530108e-004 0. 0. 0. 0.
      -2.14768248e-003 -2.00442388e-003 -9.35008563e-003
      -2.00089999e-002 -1.62478779e-002 0. 0. 0. -2.91267224e-003 0. 0.
      -1.19397067e-003 -3.29041830e-003 -1.90326490e-003 0. 0. 0. 0.
      -4.84784553e-003 5.91603946e-003 -1.34357950e-002 9.07869861e-002
      5.84496334e-002 0. 0. 0. -5.35862669e-002 -8.53816699e-003
      -5.87272050e-004 -5.78852510e-003 -1.41402967e-002
      -9.05007962e-003 0. 0. 0. -9.82537307e-003 1.63856111e-002
      5.85042825e-003 -4.24848637e-003 -5.15221572e-003 -2.80884025e-003
      0. -9.31882241e-005 -3.76334385e-004 4.30975296e-003
      1.92097947e-002 2.43084263e-002 3.51401083e-002 5.45562757e-003
      9.57262178e-004 0. 0. 0. -1.20052695e-002 -3.64810787e-002
      -2.58921962e-002 -3.35171856e-002 -2.03811005e-003 7.57356733e-003
      0. -4.23582860e-005 -1.71061096e-004 1.41461622e-002
      8.99943896e-003 -5.99743616e-005 -4.73219948e-003 -9.99549776e-003
      -1.21793607e-002 0. -1.70627190e-003 -3.43619776e-003
      -5.19813178e-003 2.81621739e-002 -1.70609180e-003 -3.81462043e-003
      -1.27822403e-002 -1.47893988e-002 -1.44848367e-003
      -2.40184763e-003 -3.53977177e-003 -7.33751105e-003 3.87277338e-003
      2.10097376e-002 -8.04639608e-002 -1.18415682e-002 -1.93361696e-002
      0. -6.62993581e-004 -1.66042917e-003 2.21698023e-002
      7.85389356e-003 -4.08955365e-002 -8.33621174e-002 -4.87826392e-002
      -4.62433547e-002 -6.50595222e-003 -5.81208430e-003
      -1.14065055e-002 7.36780465e-003 2.47362684e-002 4.36524482e-004
      -7.16700219e-003 -2.74497848e-002 -2.68308893e-002
      -4.84456308e-003 -7.05171563e-003 -7.51810241e-003 4.47313674e-003
      5.02819754e-002 0. -8.34279635e-005 -9.90717788e-004
      -2.50740466e-003 -1.11797603e-003 -3.28434049e-004 3.35818157e-004
      6.53346330e-002 5.64016961e-003 -6.02488257e-002 -8.32834169e-002
      -9.85386372e-002 -1.02508247e-001 -2.20489930e-002
      -1.55325206e-002 -2.62199901e-002 5.64016961e-003 4.68300208e-002
      -3.28284013e-003 -3.84287094e-003 -1.48607679e-002
      -3.20657864e-002 -5.08822920e-003 -1.92358170e-003
      -7.35195499e-005 4.68300208e-002 3.45849991e-002 0. 0. 0. 0. 0. 0.
      2.90697510e-003 6.40854463e-002 2.59663314e-002 0. 0. 0. 0. 0.
      1.05372258e-003 1.20343212e-002 4.88872305e-002 1.43201919e-002 0.
      0. 0. 1.13891447e-005 1.66945902e-005 3.85498535e-003
      3.23152989e-002 1.43201919e-002 1.43201919e-002 0. 0. 0.
      2.22571683e-003 2.03635450e-003 3.25776525e-002 1.16603963e-001
      1.43201919e-002 2.05786638e-002 0. 0. 0. 0. 0. 3.49369901e-003
      2.02265531e-002 3.62321287e-002 2.97361845e-003 0. 0. 0. 0. 0.
      1.37096259e-003 4.80784709e-003 6.50589028e-003 1.23366266e-002 0.
      0. 0. 8.36973824e-003 7.29205960e-004 1.03103921e-001
      9.70179364e-002 1.23366266e-002 -6.65148348e-002 0. 0. 0.
      1.35313310e-002 -1.57944784e-002 8.22264031e-002 6.23095036e-002
      -1.36010945e-002 9.39129677e-004 0. 0. 0. 0. 0. 4.08352025e-005
      2.78539606e-003 1.75150856e-003 0. 0. 0. 0. 0. 0. 0. 0. 0.
      -4.24484797e-002 0. 0. 0. 2.26975102e-002 -1.68569237e-002
      7.94838890e-002 3.74963246e-002 3.51175037e-003 0. 0. 0. 0. 0. 0.
      0. 0. 0. 0. 0. -3.99953779e-003 -7.54166348e-003 -1.97150395e-003
      0. 0. 0. 0. -3.40926759e-002 -9.69638303e-003 2.04745643e-002
      4.34215702e-002 6.38102787e-003 1.54808071e-002 5.48606440e-002
      -9.48878191e-003 -3.90073508e-002 2.30904692e-003 1.00783333e-002
      -1.13650402e-002 -1.66357011e-002 -3.93688725e-003 0. 0. 0.
      6.49409252e-004 -3.45291644e-002 -4.93262662e-003 9.06456728e-003
      5.72939329e-002 -6.33448828e-003 3.88082229e-002 6.00565299e-002
      -7.11314194e-003 -9.54473838e-002 -1.63381081e-002 1.42740132e-003
      1.68097261e-002 3.80696706e-003 1.83295943e-002 6.76493859e-003
      2.17901040e-002 -4.00799181e-004 -2.60536857e-002 1.74646489e-002
      -1.25411460e-002 -2.72597112e-002 -1.79398269e-003 3.19616497e-002
      1.12869618e-002 1.99252609e-002 1.44008938e-002 9.22184344e-003
      -4.04031500e-002 -1.99220702e-003 2.02666167e-002 3.03907623e-003
      6.33438909e-003 1.84234511e-002 5.74406013e-002 3.45750712e-002
      -4.17597778e-002 -4.26386483e-002 -2.25532725e-002
      -3.55612114e-002 -3.06570134e-003 3.98391001e-002 2.28741504e-002
      6.82899803e-002 5.80796860e-002 -7.93571118e-003 2.57147364e-002
      -1.56843606e-002 -6.78001642e-002 -1.24672325e-002
      -1.58347748e-002 5.11737866e-003 8.38949811e-003 1.46169169e-002
      3.48030552e-002 2.11680159e-002 -3.54302786e-002 -7.53464401e-002
      -3.26881111e-002 -4.06933203e-002 -1.82162842e-003
      -2.05389760e-003 -4.56539565e-004 6.64978614e-003 1.75912436e-002
      2.38810871e-002 -6.94104061e-002 -1.60123259e-002 -1.01770349e-002
      9.25679691e-003 2.55427137e-002 6.11869842e-002 3.09661888e-002
      1.49891609e-002 -3.43460217e-002 -8.12014043e-002 -3.01235318e-002
      -4.89182845e-002 -5.87806338e-003 -2.84989062e-003 2.13026349e-002
      1.49891609e-002 2.62720976e-002 -2.79899351e-002 -4.53710519e-002
      -5.28046153e-002 -5.75251170e-002 -4.26441850e-003
      -4.54831542e-003 -5.13284700e-003 1.63135193e-002 5.68717122e-002
      -1.14599313e-003 -2.17700470e-003 -3.38879344e-003
      -6.64099772e-003 -7.20705139e-004 -7.46053702e-004 4.13230853e-004
      6.47771880e-002 -8.30421969e-003 -5.21642789e-002 -7.52278343e-002
      -3.32932584e-002 -8.38995501e-002 -2.20972002e-002
      -8.12848192e-003 -2.35886266e-003 -8.78477562e-003 5.76204099e-002
      7.71299063e-004 -5.40184136e-003 -4.89101559e-003 -2.64131315e-002
      -3.48321395e-003 -1.23801653e-003 1.55377621e-003 5.62546067e-002
      3.29168066e-002 4.13654139e-003 6.86434214e-004 1.63937475e-005
      3.08933413e-005 4.52845015e-005 3.76804173e-003 1.93815008e-002
      4.85617146e-002 2.18043905e-002 1.86894480e-002 1.41324280e-002
      3.79637000e-003 8.72359611e-003 5.51464502e-003 3.53623033e-002
      7.30688199e-002 3.76606882e-002 2.93934122e-002 2.10722815e-002
      1.75373245e-003 2.68407930e-005 2.40281570e-005 3.52212774e-005
      3.19121312e-003 3.02285254e-002 2.93934122e-002 2.93934122e-002
      7.21261203e-002 3.63507606e-002 7.11362809e-003 1.17728645e-002
      5.23573440e-003 4.62450720e-002 1.24761231e-001 2.93934122e-002
      -1.11084376e-002 1.52072003e-002 2.03095488e-002 7.34387757e-003
      1.98768694e-002 1.06698815e-002 7.13427886e-002 7.65033290e-002
      1.74347907e-002 -5.34581505e-002 4.05314658e-003 1.43081201e-002
      7.34547805e-003 1.78483985e-002 9.63370502e-003 6.79479539e-002
      5.07306196e-002 -3.33972201e-002 1.83652472e-002 5.87332398e-002
      5.98984547e-002 1.34645198e-002 1.80440284e-002 8.49741697e-003
      1.13169089e-001 1.06896929e-001 9.84972809e-003 -8.29140842e-002
      4.78397943e-002 3.86063829e-002 1.01104453e-002 -3.74140441e-002
      -5.74972772e-004 8.19391236e-002 6.58376291e-002 -4.61196378e-002
      -6.21497482e-002 4.47764527e-003 2.58970074e-002 1.14082331e-002
      2.26048138e-002 6.88669877e-003 9.65352133e-002 2.86065936e-002
      -5.12561202e-002 0. 0. 0. 0. 0. 0. 0. 0. 0. -1.13929689e-001
      3.87010165e-002 3.13338451e-002 7.91642908e-003 3.11698578e-002
      3.85191571e-003 9.42284465e-002 5.30551486e-002 -1.81830060e-002
      1.44683479e-004 0. 0. 0. 0. 0. 5.92929544e-003 7.75811961e-003
      1.54541829e-003 9.77054471e-004 6.96000503e-003 -8.69332533e-003
      -1.63890943e-002 -3.32520646e-003 0. 0. 0. 2.29225145e-004
      -1.23990208e-001 -8.75977241e-003 -8.36970471e-003 2.06349082e-002
      2.50994526e-002 6.39296919e-002 6.54230043e-002 2.79113092e-002
      -8.75622332e-002 -4.45638027e-004 -4.09555575e-003
      -1.07500460e-002 -8.88541061e-003 1.05725456e-004 0. 0. 0.
      -6.00991962e-006 -7.69245848e-002 2.56066732e-002 4.95242253e-002
      1.07644796e-001 9.61462315e-003 4.84995991e-002 4.25903164e-002
      2.10039504e-002 -1.16289444e-001 -1.05318204e-001 1.47328817e-003
      1.15637332e-002 6.60703809e-004 -3.01603861e-002 1.13960048e-002
      8.67961943e-002 6.50283545e-002 -6.63898587e-002 7.35261827e-004
      -1.47677679e-002 -3.18442397e-002 -8.49132985e-003 2.55124643e-002
      2.01114267e-002 1.07283115e-001 9.89671573e-002 1.04840181e-003
      -4.49081026e-002 2.06847712e-002 4.66406606e-002 1.33982152e-002
      5.11813723e-003 2.05601435e-002 4.78832722e-002 3.93287465e-002
      -4.83967438e-002 -2.20348127e-002 -2.05403753e-002
      -3.45132649e-002 4.30822722e-004 3.01786698e-002 1.79374870e-002
      6.19660057e-002 7.74809197e-002 4.67957258e-002 1.15086604e-002
      -4.81900573e-003 -4.86903898e-002 -1.83067285e-002
      -4.41978406e-003 8.00864771e-003 3.26831266e-002 9.83450040e-002
      9.84622538e-003 5.63317118e-003 -2.43275072e-002 -5.24040461e-002
      -1.17581896e-002 -2.58355010e-002 -2.24050856e-003
      -6.64937601e-004 4.76056039e-002 -6.78978767e-003 3.70295048e-002
      1.56432223e-002 -7.51907006e-002 -3.09808133e-003 -4.28208848e-003
      7.00501027e-003 2.24001519e-002 6.59509748e-002 6.99576437e-002
      5.83008900e-002 -4.47951593e-002 -9.55844596e-002 -1.87444352e-002
      -4.13607210e-002 -7.79035222e-003 -3.59328085e-004 2.53154580e-002
      8.10375959e-002 1.51848160e-002 -1.99791864e-002 -3.61650176e-002
      -1.02215363e-002 -2.24766973e-002 -5.34033868e-003
      -2.43256870e-003 7.87047949e-003 2.75075831e-003 4.98533361e-002
      8.66976380e-003 -2.26558186e-003 -1.32507784e-003 -5.94501151e-003
      -9.81280697e-004 -3.56832257e-004 1.16401224e-003 5.54275550e-002
      5.01809455e-002 -7.11084753e-002 -1.09923802e-001 -4.65652011e-002
      -7.57138208e-002 -2.67281160e-002 -4.07325383e-003
      -6.38613058e-003 6.06273226e-002 9.88077894e-002 4.31979046e-004
      -1.04594864e-002 -9.16286744e-003 -2.64286585e-002
      -5.85229741e-003 -7.54565641e-004 3.14659392e-003 8.64972696e-002
      2.42796317e-002 4.02386524e-002 1.88595930e-003 2.24504129e-005 0.
      0. 1.92913192e-003 1.47461891e-002 3.73904668e-002 1.38926767e-002
      1.11152083e-001 4.38207127e-002 6.94414554e-003 8.04545172e-003
      1.57798058e-003 2.86904257e-002 6.57785013e-002 2.63700671e-002
      5.78314289e-002 2.27593221e-002 1.74277066e-003 1.29160217e-005 0.
      0. 2.13021459e-003 3.86071391e-002 3.78969274e-002 3.91085334e-002
      7.09266588e-002 3.56408171e-002 6.41742395e-003 8.92885681e-003
      3.51344282e-003 4.12786342e-002 1.24972202e-001 2.36208308e-002
      -1.44731272e-002 9.51846614e-002 9.55059230e-002 9.80080198e-003
      9.37352981e-003 5.63472416e-003 6.02494143e-002 7.15461522e-002
      6.05729362e-003 -6.48305491e-002 7.45082796e-002 5.25654443e-002
      -4.63383738e-003 -4.02584635e-002 1.06738536e-002 5.87825999e-002
      4.46126126e-002 -9.78839248e-002 5.97597193e-003 7.35596344e-002
      6.59085587e-002 8.93038698e-003 1.77349951e-002 5.30936569e-003
      1.15155831e-001 1.01867966e-001 -5.61898202e-003 -1.07270315e-001
      3.73041034e-002 5.52989095e-002 1.48053712e-003 -1.74964052e-002
      -4.17435914e-003 1.07805394e-001 6.92632645e-002 -6.62639588e-002
      -8.80464911e-002 8.29140693e-002 4.53641303e-002 -4.93703410e-004
      4.41503599e-002 1.34239700e-002 7.58312643e-002 2.72538289e-002
      -1.39202312e-001 -1.33617385e-003 0. 0. 5.68292990e-006
      -7.75909139e-005 7.39107025e-004 9.27549694e-003 4.74054087e-003
      -1.29369146e-003 -1.25746682e-001 2.44104248e-002 7.41031468e-002
      -9.81767382e-003 6.27380656e-003 6.61431486e-003 1.36319280e-001
      5.32389246e-002 -5.81496209e-002 -1.78049225e-002 -5.26507574e-005
      5.87097602e-004 9.79331904e-004 -1.61071252e-002 6.66628452e-003
      1.10376149e-003 1.22913334e-003 -2.04656273e-002 -5.68866730e-003
      -2.54523046e-002 -1.86903700e-002 -1.39304865e-002 4.02402645e-003
      0. 0. 0. -5.40898007e-004 -7.42168203e-002 -2.62722690e-002
      1.07364133e-002 5.32877035e-002 2.92653143e-002 7.76666179e-002
      3.59294042e-002 4.96195629e-002 -2.37852111e-002 -2.57292204e-003
      -8.72853119e-003 -5.93085075e-003 7.23870192e-003 6.17227005e-003
      6.00673782e-004 0. 0. -3.19000799e-004 -8.20126757e-002
      -3.61357741e-002 1.26978466e-002 3.11524160e-002 -6.67678844e-003
      3.07496004e-002 5.27734905e-002 5.20267710e-003 -7.98237398e-002
      -8.09136406e-002 -3.02066607e-003 1.68780405e-002 1.12395920e-002
      -9.07634571e-003 1.67556815e-002 5.73675632e-002 6.86925650e-002
      -5.67544438e-002 1.59915350e-003 -1.84850860e-002 -2.23704781e-002
      2.96249078e-003 2.77992636e-002 1.41695775e-002 8.52919966e-002
      1.03022993e-001 1.03738271e-002 -6.31630048e-002 -1.43729243e-002
      8.68745334e-003 1.79055259e-002 1.54647361e-002 2.21898090e-002
      5.90049922e-002 3.96618061e-002 -5.08747734e-002 8.43041125e-005
      -9.31582041e-003 5.56914834e-003 9.97948926e-003 3.60237509e-002
      1.99829172e-002 7.59656057e-002 8.63453373e-002 1.55791007e-002
      2.25379579e-002 -6.88696932e-003 -3.53021249e-002 3.24803893e-003
      -4.77479212e-003 5.85907651e-003 2.98735835e-002 9.91052687e-002
      3.32871117e-002 1.31583726e-002 -2.60921083e-002 -5.91360293e-002
      -6.54079765e-003 -3.06065138e-002 -2.30931374e-003 1.78338843e-003
      2.83236038e-002 1.31583726e-002 2.29906533e-002 4.29521361e-003
      3.37716029e-003 3.04210302e-003 4.86825686e-003 7.47258915e-003
      3.05010192e-002 6.66084662e-002 2.89554894e-002 4.28115651e-002
      -4.11052117e-003 -1.53469732e-002 -7.21093093e-004
      -1.23300860e-002 -1.32513422e-004 2.91272113e-003 2.40238514e-002
      4.30555828e-002 1.85933802e-002 -1.80584192e-002 -3.56880389e-002
      -8.09760951e-003 -1.24617992e-002 -2.79728114e-003
      -5.97907696e-004 -9.27683257e-004 1.82761904e-002 2.49933619e-002
      1.36601098e-004 -1.98296201e-003 -1.40281883e-003 -2.95890239e-003
      -5.71932178e-004 -6.22499574e-005 2.92161410e-003 2.49946434e-002
      3.79466899e-002 -5.07478788e-003 -1.01447869e-002 -7.10276538e-004
      -2.87925126e-003 -2.39902409e-004 -9.56635631e-005 5.27131662e-004
      3.79970446e-002 4.02791873e-002 8.08161509e-004 -4.75931913e-004
      -1.14795635e-004 -3.14927165e-004 -3.12647026e-005 0.
      1.17599953e-003 4.10089232e-002 3.87113867e-003 2.39075664e-002
      2.38495553e-003 1.04192295e-005 0. 0. 1.75136456e-003
      2.00184546e-002 3.87113867e-003 4.02164122e-004 1.08179651e-001
      4.45047691e-002 5.40941162e-003 8.95159598e-003 3.69429030e-003
      3.22016180e-002 7.02598318e-002 4.02164122e-004 2.54932214e-002
      2.07064990e-002 1.99367874e-003 1.33961521e-005 0. 0.
      1.18566828e-003 6.75281463e-003 2.58132573e-002 1.42149311e-002
      7.88539797e-002 3.90045010e-002 6.31082151e-003 8.84809252e-003
      2.53952574e-003 2.13747211e-002 2.79681087e-002 1.38870282e-002
      -3.13687585e-002 9.61063802e-002 9.71250460e-002 6.73629995e-003
      1.97254587e-002 8.69822316e-003 6.95598125e-002 5.77254854e-002
      -1.40583031e-002 -7.04045668e-002 5.93470223e-002 6.56302869e-002
      -4.41063801e-003 8.16304982e-003 9.76575725e-003 6.34244755e-002
      3.51316892e-002 -9.48428437e-002 -2.91676290e-004 8.10713544e-002
      7.01242015e-002 9.99017991e-003 2.13808846e-002 7.75423972e-003
      4.14706282e-002 2.65659671e-002 -1.31018106e-002 -5.29484227e-002
      4.61886637e-002 5.46355806e-002 4.83092340e-003 -6.53027883e-003
      1.28594032e-002 3.71327288e-002 3.12003633e-003 -6.86826780e-002
      -4.13903110e-002 5.15135750e-002 6.04706630e-002 -6.45430060e-003
      2.23302227e-002 4.61446866e-003 8.72545764e-002 -8.47537711e-004
      -1.21234402e-001 -6.76125521e-003 -3.02400258e-005 1.94744568e-003
      4.50134231e-003 -1.14395963e-002 7.64334761e-003 5.29931951e-003
      1.35305572e-005 -8.23136698e-003 -7.72197321e-002 2.72938702e-002
      6.21582083e-002 -1.10155642e-002 -1.92861408e-002 1.02451246e-003
      5.38376160e-002 -1.87422428e-002 -8.00104067e-002 -9.18868522e-004
      -1.37454654e-005 9.49127716e-004 6.65922463e-003 -1.14395963e-002
      8.88917968e-003 3.40867462e-003 -7.99604823e-005 -9.18868522e-004
      -1.86557730e-003 -5.89476758e-006 1.74051456e-005 1.69010565e-003
      6.45048125e-003 4.48145671e-003 2.52550817e-004 -5.83553592e-005
      -1.84922724e-003 -5.18901311e-002 -1.58533771e-002
      -2.86407880e-002 -1.77053642e-003 1.90592129e-002 5.27554601e-002
      4.61476073e-002 3.59962210e-002 -1.74247809e-002 -2.42477879e-002
      0. 0. 1.39236499e-005 7.65927043e-003 8.29635747e-003
      8.07184540e-003 3.94658302e-004 -2.42477879e-002 -2.83957403e-002
      0. 0. 8.42655500e-005 4.75685997e-003 6.89455681e-003
      1.77033152e-002 9.22254380e-003 -2.62695476e-002 -7.72509575e-002
      -9.71453357e-003 -9.19862185e-003 -3.43804801e-004
      -1.23964455e-002 1.52115114e-002 7.00881630e-002 6.39390871e-002
      -3.81315015e-002 3.88432201e-003 -7.06859026e-003 -2.35095387e-003
      6.98758871e-004 1.32903829e-002 1.10297035e-002 9.05625448e-002
      1.00620016e-001 4.68315650e-003 -2.30595618e-002 0. 0.
      6.62964812e-005 3.61232203e-003 5.04474808e-003 1.59590375e-002
      1.75366439e-002 -1.34008517e-002 6.13116473e-003 0. 0.
      4.41976545e-006 2.46422685e-004 5.03646967e-004 2.24122740e-002
      4.41507399e-002 3.12032811e-002 -1.64705736e-003 6.20887076e-005
      1.04875572e-003 4.81363037e-004 1.59614161e-003 2.94239260e-003
      2.68534906e-002 9.43467245e-002 -1.38899893e-003 -1.94201281e-003
      1.88855542e-004 -7.51127664e-004 -1.42331803e-004 -3.37423920e-003
      -8.94960176e-005 3.53148743e-003 3.94298583e-002 -1.94201281e-003
      1.50238313e-002 0. 0. 0. 0. 0. 5.35485428e-003 2.87027974e-002
      3.09216585e-002 4.39340733e-002 0. 0. 0. 0. 0. 1.09678577e-003
      8.30039848e-003 5.07805683e-002 5.09129139e-003 -3.49838338e-005
      -2.51612335e-004 -4.21736040e-005 -4.69106017e-004
      -4.17707233e-005 -7.18811634e-006 1.56998588e-003 5.09129139e-003
      5.14536537e-003 1.14192755e-003 0. 0. 0. 0. 0. 0. 5.14536537e-003
      4.31660526e-002 0. 0. 0. 0. 0. 0. 2.08075639e-004 4.46825549e-002
      5.04963771e-002 6.47027700e-005 0. 0. 0. 0. 0. 0. 4.86692190e-002
      -3.66124976e-003 3.46019268e-002 2.63446942e-003 3.71428246e-006
      0. 0. 9.47180597e-005 1.79143695e-004 -3.67129059e-003
      -2.66070361e-003 1.02039114e-001 3.36935967e-002 2.28265114e-003
      2.73947371e-003 5.76397171e-004 2.25958158e-003 1.95376389e-003
      -3.29693267e-003 4.65033054e-002 8.08513071e-003 8.71559721e-004
      0. 0. 0. 0. 0. 3.95161249e-002 3.58625278e-002 3.56038287e-002
      7.12815300e-003 0. 0. 0. 0. 0. 2.13895049e-002 4.15093591e-003
      9.41029042e-002 8.54001716e-002 4.51601157e-003 6.35409635e-003
      1.99471484e-003 4.50628716e-003 2.41996619e-004 3.39826266e-003
      -1.37032019e-002 5.95181100e-002 5.76056279e-002 -3.30713345e-004
      -8.67682137e-003 3.36987828e-003 2.98538222e-003 -4.53931233e-003
      -6.63316399e-002 2.68640611e-002 4.12997752e-002 2.28701010e-002
      1.54671073e-003 8.69928452e-004 1.79633789e-005 0. 0.
      4.15544957e-003 -1.28933480e-002 1.86145902e-002 1.66637897e-002
      5.80961350e-003 5.28562721e-003 7.78413087e-005 0. 0.
      -2.20561940e-002 -6.31273910e-003 5.18768094e-002 4.53089736e-002
      -5.41827991e-004 5.37420157e-003 5.62574773e-004 5.94099343e-004
      -1.03427190e-002 -4.61944602e-002 -1.35091960e-003
      -1.26472791e-004 5.07052522e-004 9.06529184e-003 -1.20856147e-002
      6.89094281e-003 3.68605804e-004 -2.17411034e-005 -1.35091960e-003
      -1.52930478e-002 7.50491209e-003 1.36660272e-002 1.69262255e-003
      -1.55464895e-002 3.70185408e-005 0. 0. -1.97775606e-002
      -6.92408346e-003 -1.41898612e-003 6.63783215e-003 6.84587844e-003
      -1.20856147e-002 6.89085387e-003 2.14498700e-003 -2.79528467e-005
      -6.10318733e-003 -2.22193077e-002 0. 0. 0. 3.33352434e-003
      8.59745592e-003 9.28386487e-003 4.47383802e-003 -2.21396182e-002
      -2.21031830e-002 0. 0. 0. 1.67627688e-004 1.02249871e-003
      7.03311246e-003 4.45451913e-003 -2.16419436e-002 -1.01216333e-002
      0. 0. 0. 5.00143098e-004 2.43585906e-003 9.57456511e-003
      9.57456511e-003 -9.17076878e-003 -1.03994003e-002 0. 0. 0.
      2.12991545e-005 3.35317658e-004 9.57456511e-003 9.57456511e-003
      -4.27447911e-003 -2.07299963e-002 0. 0. 0. 6.41806764e-005
      6.16799633e-004 5.26222074e-003 8.78877379e-003 -1.69342570e-002
      1.88840665e-002 0. 0. 0. 2.01777630e-006 6.02245636e-005
      3.03278351e-003 8.78877379e-003 2.05273964e-002 -6.88615954e-003
      0. 0. 0. 0. 0. 5.21653844e-003 8.78877379e-003 -1.55989826e-003
      -7.32254982e-003 0. 0. 0. 0. 0. 3.62339313e-004 7.84689281e-003
      -3.07005970e-003 1.22351870e-002 0. 0. 0. 0. 0. 2.11508042e-004
      5.31348865e-003 1.22351870e-002 1.22351870e-002 0. 0. 0. 0. 0. 0.
      4.43782134e-004 1.22351870e-002 -6.53618667e-003 0. 0. 0. 0. 0. 0.
      1.85012724e-003 -4.08685999e-004 -6.63777441e-003 0. 0. 0. 0. 0.
      0. 2.47312099e-004 -2.05591181e-003 1.29678510e-002 0. 0. 0. 0. 0.
      0. 0. 1.29678510e-002 1.29678510e-002 9.04591616e-006 0. 0. 0. 0.
      0. 0. 1.29678510e-002 -4.47030319e-003 0. 0. 0. 0. 0. 0. 0.
      -3.17269517e-003 -2.82728299e-003 2.24877076e-005 0. 0. 0. 0. 0.
      0. -5.72716305e-003 1.18456502e-002 1.19559036e-003 0. 0. 0. 0. 0.
      0. 1.18456502e-002 1.18456502e-002 8.77978373e-003 4.92448220e-004
      0. 0. 0. 0. 0. 1.14487717e-002 -1.24817959e-003 4.85897064e-004 0.
      0. 0. 0. 0. 0. -6.12498727e-003 -1.82478770e-003 3.42574227e-003
      0. 0. 0. 0. 0. 0. -7.81265832e-003 2.05639526e-002 8.82539246e-003
      3.60560557e-003 2.19081121e-004 1.57187260e-005 0. 0. 0.
      1.60128120e-002 -1.91004835e-002 7.74045102e-003 5.57149714e-003
      8.21967784e-004 1.01666730e-004 0. 0. 0. -2.12353002e-002
      -1.52328005e-003 8.82539246e-003 8.55070364e-004 0. 0. 0. 0. 0.
      -6.58519240e-003 -3.03344149e-003 8.82539246e-003 8.82539246e-003
      0. 0. 0. 0. 0. -8.64973478e-003 -1.94025598e-002 -3.10283212e-004
      6.26431732e-003 -1.36737921e-003 -1.64753310e-002 0. 0. 0.
      -1.96427722e-002 -1.89835764e-002 -2.33686902e-003 4.59392788e-003
      4.90393955e-003 -1.19040469e-002 2.02632183e-003 1.08000403e-003
      -4.97768342e-005 -1.63366534e-002 -7.10309576e-003 8.29178374e-003
      9.13687889e-003 6.12896867e-004 -5.99957537e-004 0. 0. 0.
      -1.01812566e-002 -3.71828419e-003 7.06787780e-003 9.07943491e-003
      2.68296176e-003 -6.94987131e-004 1.36604518e-004 1.05018065e-004
      0. -3.47963674e-003 4.86168283e-004 0. 0. 0. 4.69100778e-005
      5.62672540e-005 1.09831141e-002 1.14852544e-002 2.21085479e-003
      4.71400842e-003 0. 0. 0. 3.12733846e-006 1.29847504e-005
      1.14852544e-002 1.14852544e-002 1.14852544e-002 4.48696155e-005 0.
      0. 0. 0. 0. 2.61403547e-005 1.23832782e-004 1.22746264e-004
      1.09618402e-003 0. 0. 0. 0. 0. 7.88295176e-004 3.79883032e-003
      3.32641811e-003 5.04066516e-003 0. 0. 0. 0. 0. 4.17356193e-003
      9.61664878e-003 9.61664878e-003 8.54542479e-003 0. 0. 0. 0. 0.
      4.94603068e-004 9.61664878e-003 9.61664878e-003 1.90202123e-003 0.
      0. 0. 0. 0. 4.76991409e-004 5.04991692e-003 5.07527357e-003
      4.81871609e-003 0. 0. 0. 0. 0. 1.14139169e-004 6.82926038e-003
      9.61664878e-003 7.64389941e-003 0. 0. 0. 0. 0. 0. 4.51077241e-003
      9.83412378e-003 9.83412378e-003 0. 0. 0. 0. 0. 0. 7.81525800e-004
      9.83412378e-003 5.91584481e-003 0. 0. 0. 0. 0. 0. 2.89849378e-003
      9.83412378e-003 9.83412378e-003 0. 0. 0. 0. 0. 0. 6.07853348e-004
      9.83412378e-003 9.37768351e-003 0. 0. 0. 0. 0. 0. 0.
      9.37768351e-003 9.37768351e-003 7.17626826e-005 0. 0. 0. 0. 0. 0.
      9.37768351e-003 9.37768351e-003 0. 0. 0. 0. 0. 0. 0.
      9.37768351e-003 9.37768351e-003 5.58154206e-005 0. 0. 0. 0. 0. 0.
      9.37768351e-003 9.54044983e-003 1.43443048e-003 0. 0. 0. 0. 0. 0.
      9.28670354e-003 9.54044983e-003 7.73298740e-003 0. 0. 0. 0. 0. 0.
      8.01856350e-003 9.54044983e-003 1.10837596e-003 0. 0. 0. 0. 0. 0.
      8.70106183e-003 9.54044983e-003 4.37991787e-003 0. 0. 0. 0. 0. 0.
      5.55828353e-003 9.70999803e-003 9.70999803e-003 1.17753702e-003 0.
      0. 0. 0. 0. 7.46084703e-003 9.70999803e-003 9.70999803e-003
      7.26353005e-003 0. 0. 0. 0. 0. 4.65728343e-003 9.70999803e-003
      6.84520649e-003 2.39764253e-004 0. 0. 0. 0. 0. 3.73010570e-003
      4.10036417e-003 4.50375443e-003 5.97895531e-004 0. 0. 0. 0. 0.
      1.49845867e-003 1.19917812e-002 1.19917812e-002 1.19917812e-002
      4.22075354e-005 1.74590041e-005 0. 0. 0. 3.87865305e-003
      1.28728233e-003 1.05934534e-002 1.14753162e-002 1.13465052e-004
      7.56556838e-005 0. 0. 0. 3.35471064e-004 1.94328721e-003
      2.45239981e-003 5.65702969e-004 0. 0. 0. 0. 0. 7.62305921e-004
      5.22505361e-005 3.54516960e-005 0. 0. 0. 0. 0. 0. 1.37918305e-005</_>
    <_>
      5.89907460e-004 4.02230630e-003 4.02230630e-003 9.59906727e-004
      1.71699707e-004 0. 0. 0. 1.26232640e-004 3.91580816e-003
      2.46065506e-003 4.02230630e-003 3.96350573e-004 1.17071533e-004 0.
      0. 0. 2.74011138e-004 1.73498542e-004 3.14884819e-003
      4.02230630e-003 3.65718990e-003 4.44214646e-004 0. 0. 0.
      5.91819226e-005 2.01463513e-002 1.84540858e-003 2.83329794e-003
      4.51661268e-004 -9.05065797e-003 0. 0. 0. 6.05828920e-003
      4.26977500e-003 3.11608822e-003 4.62950207e-003 2.68217846e-004
      6.26781621e-005 0. 0. 0. 9.81208519e-004 -1.60137017e-003
      5.08517609e-004 -6.09520590e-004 1.40189240e-005 0. 0. 0. 0.
      -3.78002366e-003 5.31672360e-003 1.20029633e-003 1.38063671e-003
      -4.73251985e-003 3.12544929e-004 0. 0. 0. -4.56949259e-004
      -1.59256589e-002 3.31284333e-004 1.35742914e-004 -3.33422120e-003
      1.27526012e-003 0. 0. 0. -1.59945618e-002 -5.27007878e-003
      5.18374727e-004 -3.87279812e-004 0. -1.94672926e-003
      -2.63123424e-003 -3.26839741e-003 -1.99979148e-003
      -7.49753509e-003 3.76801640e-002 1.71734870e-003 7.61018746e-005
      0. -3.96244880e-003 -5.69801778e-003 -4.16613882e-003
      -2.49300036e-003 2.05142815e-002 2.15422688e-003 1.26134790e-002
      -1.56852361e-002 -6.44176267e-003 -3.22241448e-002
      -2.49667559e-002 -1.79685131e-002 -9.81847011e-003 2.15422688e-003
      2.15422688e-003 -1.38798626e-002 -1.17974579e-002 -8.57570115e-003
      -5.66714928e-002 -5.16113266e-002 -2.31317505e-002
      -1.32063562e-002 4.59307665e-003 4.25494574e-002 1.84598757e-004
      3.07294613e-005 0. -3.90090421e-003 -5.60135907e-003
      -2.37971544e-003 -9.47749882e-004 3.35890241e-002 4.12251391e-002
      0. 0. 0. 0. 0. 2.25010644e-005 3.19554121e-003 5.04095480e-002
      2.86931843e-002 -3.10179312e-002 -3.19678448e-002 -9.23422165e-003
      -7.24343508e-002 -5.24553284e-002 -1.50441285e-002
      -1.33789191e-002 4.03663218e-002 6.57163141e-003 -7.46327490e-002
      -7.46327490e-002 0. 0. 0. 0. 1.25389441e-003 2.87615098e-002
      2.58227997e-002 -2.23768409e-003 -7.55849935e-004 0.
      2.72612942e-005 0. 7.67934544e-005 5.06100105e-003 4.84148860e-002
      -3.24918539e-003 -1.72841530e-002 -4.28582774e-003 0.
      7.16131399e-005 3.88343797e-005 4.60141571e-003 1.46097485e-002
      2.60898322e-002 6.90839114e-003 -6.57472685e-002 -6.36648387e-002
      0. 1.24458320e-005 -2.51781050e-004 1.81448506e-003
      1.73971020e-002 3.95509154e-002 -8.10937583e-003 -7.18120039e-002
      -6.59184828e-002 0. -3.78596160e-005 -2.22491473e-003
      2.01768205e-002 7.39871338e-002 -7.77704967e-003 -2.82371733e-002
      -1.51656605e-002 -2.48341355e-003 0. -1.17371930e-003
      -1.25333329e-003 5.89112379e-003 1.83206256e-002 4.18323930e-003
      -3.02169845e-002 -4.44501080e-003 -1.29523658e-004 0.
      -8.21133424e-003 -4.80149454e-003 3.31434910e-003 5.05145290e-005
      -1.51597867e-002 -4.92600817e-003 -7.22069889e-002
      -1.97999943e-002 0. -3.60203460e-002 -5.03166905e-003
      6.45427108e-002 5.92057332e-002 -4.72394098e-003 -5.34683876e-002
      -2.76877210e-002 -1.70144287e-003 0. -4.09142971e-002
      -2.08347272e-002 5.78448251e-002 4.47657928e-002 -1.11706089e-002
      -2.53764652e-002 -1.75479788e-003 0. 0. -2.99514979e-002
      -1.38427662e-002 1.80724938e-003 -1.17455218e-002 -2.23137606e-002
      0. 0. 0. 0. 3.27343769e-005 1.96433321e-004 2.32285602e-004
      7.05327648e-006 2.57813986e-006 -5.98279275e-002 -1.17819756e-002
      -9.20530525e-004 0. -2.70010419e-002 -3.44524570e-002
      7.31934234e-002 4.72281203e-002 -2.19634883e-002 0. 0. 0. 0.
      8.65232199e-004 3.53030418e-003 3.38523393e-003 2.38733446e-005
      2.00522004e-006 2.47388398e-005 9.16463672e-004 4.66098916e-003
      4.66098916e-003 1.68701936e-003 0. 0. 0. 2.47388398e-005
      2.03219615e-003 2.02057348e-003 -5.74597251e-003 -4.07785317e-003
      -2.33854400e-003 -9.42448992e-003 1.53081333e-002 3.62455775e-003
      1.22923730e-003 -6.71476824e-004 -2.57969601e-003 9.66153399e-004
      4.66098916e-003 2.31311074e-003 0. 0. 0. -1.62951867e-004
      5.19401953e-003 5.65896789e-003 6.30504638e-003 -3.04599851e-003
      1.10098990e-002 -1.07203275e-002 -5.48225408e-003 1.52783869e-002
      -5.07683679e-003 1.83472049e-003 3.52568662e-004 -2.30678334e-003
      -6.42080605e-003 -3.12436256e-003 -4.80087660e-003 5.41878026e-003
      2.61782180e-003 1.02480408e-003 -1.31826429e-003 -2.38534436e-003
      -3.24882218e-003 -5.67848375e-003 -1.40704645e-003
      -2.36551580e-003 -2.32053432e-003 4.83182771e-003 1.85233704e-003
      9.60030779e-003 7.27209821e-003 7.22781196e-003 -3.75973992e-003
      -7.55013339e-003 -1.32877333e-002 -1.60603682e-004 1.11607108e-002
      -3.16228572e-004 -1.37533471e-002 1.43455667e-003 2.30535166e-003
      -3.40447295e-003 -8.05831328e-003 -7.98206404e-003
      -1.50737737e-003 -1.11335458e-003 -1.55436620e-002 3.66985938e-003
      -1.19070001e-002 -6.80324575e-003 -5.76218171e-003
      -1.46837104e-002 -9.16394591e-003 -1.01171220e-002
      -3.54210322e-004 7.71643012e-004 3.40078287e-002 -1.98449790e-002
      -1.19358785e-002 -5.45223430e-003 -2.80120149e-002
      -1.86996758e-002 -7.42535340e-003 -2.73878104e-003 3.90156507e-002
      5.81981242e-003 1.03145767e-005 -8.99706781e-003 -8.16400908e-003
      -3.27939764e-002 -2.84137428e-002 -2.07731314e-002
      -8.62195157e-003 5.83841559e-003 9.51077417e-003 -5.60517795e-002
      -1.75693594e-002 -1.13656586e-002 -4.63882685e-002
      -4.52846177e-002 -1.56511888e-002 -4.13436349e-003 1.40802860e-002
      5.83469868e-002 -3.16219628e-002 -2.56120637e-002 -1.34697254e-003
      -9.59018990e-003 -7.01984530e-003 -2.05398630e-003
      -1.72752026e-003 7.63663799e-002 4.11234200e-002 -5.62016554e-002
      -5.41467108e-002 0. 0. 0. 0. 1.55026908e-003 8.56044367e-002
      2.83034686e-002 -7.80663043e-002 -6.17594272e-002 -1.19310124e-002
      -5.43016195e-002 -5.36640473e-002 -1.41458269e-002
      -1.04758423e-002 4.66870852e-002 2.43295468e-002 -1.09591484e-001
      -1.11611471e-001 0. 0. 0. 0. 2.75864103e-003 6.81008920e-002
      2.48613730e-002 -5.16666695e-002 -5.19283600e-002 2.19072194e-006
      -3.42776207e-003 -5.59862761e-004 2.04528240e-003 1.55098643e-002
      6.83254376e-002 2.20118207e-003 -4.77396548e-002 -3.09272744e-002
      9.04659391e-004 -3.00785080e-002 -3.41365323e-003 2.35973857e-002
      4.85090651e-002 3.13739292e-002 1.74143855e-002 -8.97451267e-002
      -9.79818627e-002 2.81664256e-006 -1.40752606e-002 -9.07984097e-004
      2.20400491e-003 2.34290417e-002 8.05409029e-002 1.01855183e-002
      -4.21222523e-002 -5.91517352e-002 1.44944619e-003 -4.74166088e-002
      -9.03775357e-003 2.71251835e-002 6.67664409e-002 2.05130409e-002
      -3.11046522e-002 -2.74793170e-002 6.03549462e-003 4.05594194e-003
      -5.56376912e-002 1.20194192e-004 4.56209444e-002 5.15276454e-002
      1.29883857e-002 -3.01196948e-002 -6.99814083e-003 1.66322049e-002
      1.06486268e-002 -3.88401709e-002 5.57857379e-003 4.68704812e-002
      3.41848321e-002 -9.18658264e-003 -1.19932600e-004 -1.74940024e-002
      2.60048155e-002 5.41758304e-003 -8.35185051e-002 -5.60264522e-003
      7.10234419e-002 5.49110472e-002 -7.43304053e-003 -4.39727493e-002
      1.55978883e-003 3.95020507e-002 1.14143966e-002 -6.48453906e-002
      -2.70604924e-003 6.42442256e-002 4.35344279e-002 -2.47317497e-002
      -2.22484972e-002 1.17013615e-003 3.62647176e-002 2.51131505e-002
      -7.75687918e-002 1.11082289e-002 6.84261546e-002 2.91179642e-002
      -1.77560113e-002 -1.18758611e-003 -6.29427319e-004
      -2.71997396e-005 -2.74969375e-006 1.12799788e-003 3.93116707e-003
      2.53526145e-003 -2.01218514e-004 -7.15641887e-004 -5.80290258e-002
      1.65107027e-002 6.71484843e-002 3.06945723e-002 -6.16360568e-002
      6.95041381e-003 9.01777744e-002 5.54044805e-002 -3.35133374e-002
      -2.57402682e-003 -2.57402682e-003 -1.91946878e-004
      -4.12454065e-005 1.37313583e-003 3.70722823e-003 1.85411226e-003
      -8.88565090e-004 -2.22212938e-003 -3.19040060e-004
      -1.96930044e-003 -1.17049750e-003 1.60171278e-003 1.11611222e-003
      0. 0. 0. -5.32737722e-005 4.00320068e-003 6.60529034e-003
      -3.55130201e-003 4.83127311e-003 -5.11214370e-003 6.81897160e-003
      1.09113008e-002 5.72993699e-003 -1.19854342e-002 -1.26132305e-004
      -1.33279152e-003 -1.08340906e-003 1.75430905e-003 3.20764282e-003
      2.29137422e-005 0. 0. -9.35095522e-006 -1.00276368e-002
      4.62789414e-003 2.41314294e-003 -6.27899449e-003 1.78038701e-003
      -4.63813869e-003 -4.49920772e-003 1.32805733e-002 1.30251395e-002
      5.33735473e-003 4.07359935e-003 2.72960449e-003 1.23723340e-003
      -4.61033126e-003 -7.65418122e-003 1.83491793e-003 9.81920771e-003
      -6.86937571e-003 -1.84941886e-003 5.82202571e-004 1.21285557e-003
      4.01420897e-004 -4.92541399e-003 -8.47327150e-003 3.07271280e-003
      -4.26768675e-004 -2.05341890e-003 -7.03045819e-003 3.09246359e-003
      9.94991977e-004 -3.97363590e-004 -4.41229157e-003 -4.06975532e-003
      -7.26736849e-004 8.72984156e-003 2.41085398e-003 -4.55641514e-003
      -3.02410009e-003 -2.70340964e-003 -7.11946166e-004
      -7.33916229e-003 -7.67522585e-003 -3.95685318e-004
      -6.74791122e-003 -1.01282774e-002 4.67741722e-003 -1.58428401e-002
      -3.11994343e-003 -3.65889585e-003 -1.61863286e-002
      -1.48537159e-002 -2.05153227e-003 -2.31226208e-003 4.99748345e-003
      3.08316927e-002 -7.46546537e-002 -1.58458445e-002 -7.28080701e-003
      -2.28400640e-002 -1.94799993e-002 -4.81475284e-003 2.32553836e-002
      3.98866162e-002 1.72505027e-003 6.27187779e-004 -1.33588789e-002
      -7.88464304e-003 -4.48992625e-002 -3.77109572e-002
      -1.87094696e-002 -9.23892669e-003 1.15030492e-002 1.11542717e-002
      -4.43619043e-002 -1.41990660e-002 -1.49811134e-002
      -6.76936656e-002 -6.29051328e-002 -2.40448918e-002
      -2.40886747e-003 4.94929478e-002 5.84041588e-002 -9.21065360e-002
      -6.72646090e-002 -1.83939806e-003 -7.98998028e-003
      -6.58363150e-003 -2.19151308e-003 5.64675732e-003 7.36631304e-002
      4.87734675e-002 -1.04971193e-001 -1.09347910e-001 0. 0. 0. 0.
      2.59882421e-003 1.07317001e-001 6.49283901e-002 -8.27277675e-002
      -4.85116690e-002 -1.88860316e-002 -7.09413737e-002
      -6.88055605e-002 -2.31786091e-002 -1.35786431e-002 1.06763706e-001
      6.72648922e-002 -1.27197072e-001 -1.27638832e-001 0. 0. 0. 0.
      3.52329179e-003 1.00635260e-001 3.65597866e-002 -8.12735260e-002
      -9.10481811e-002 7.80956043e-007 -3.51513028e-002 -2.61642411e-003
      5.50197263e-004 1.50132813e-002 1.13579817e-001 6.28704252e-003
      8.00200831e-003 -2.02095844e-002 1.16649491e-003 -8.60474408e-002
      -3.21042128e-002 -6.24053506e-003 1.35335959e-002 3.53639908e-002
      6.27929270e-002 -9.37749520e-002 -1.00752048e-001 0.
      -1.27682295e-002 -1.54675427e-003 4.89301863e-004 2.98362803e-002
      1.10171735e-001 2.29169950e-002 -4.57177125e-002 -7.30786026e-002
      9.68145730e-004 -5.10677025e-002 -1.27774393e-002 1.70013867e-002
      7.54464939e-002 1.27374623e-002 -3.23498361e-002 2.25326996e-002
      6.48269430e-002 1.28734484e-003 -9.31128263e-002 -7.97152519e-003
      2.98730377e-002 2.67559886e-002 8.50083306e-003 -3.18170302e-002
      2.51678489e-002 6.60696477e-002 -5.34656132e-003 -6.88872114e-002
      3.85422329e-003 3.57466862e-002 2.74088606e-002 -5.45238405e-002
      -1.00515513e-002 -2.94534676e-002 1.49739841e-002 2.50620511e-003
      -7.81902224e-002 -7.45846285e-003 7.96193108e-002 5.48877344e-002
      -2.84810010e-002 -7.19261691e-002 -6.80615474e-003 3.12336963e-002
      3.03425500e-003 -8.21257681e-002 -1.30172670e-002 7.20115304e-002
      4.29061465e-002 -3.66710536e-002 -3.82941589e-002 3.71374637e-002
      9.10452455e-002 1.18117351e-002 -7.38110393e-002 1.52131682e-002
      5.16700000e-002 2.52378620e-002 -6.71236217e-002 -1.49758498e-003
      -1.13938842e-003 -7.56937516e-005 -1.98334183e-005 7.00291304e-004
      4.16625105e-003 4.14377690e-004 -2.59157678e-004 -6.34230906e-004
      -8.48184004e-002 6.02087844e-003 4.94453907e-002 7.89004657e-003
      -8.73188227e-002 -1.30237760e-002 9.23857316e-002 5.10408618e-002
      -2.28693187e-002 -6.91655396e-006 -1.85700412e-006 0.
      1.35797300e-005 7.00291304e-004 4.28162701e-003 0. 0.
      -3.61608204e-006 -4.09254926e-006 -1.98392867e-004
      -1.99305709e-003 -4.66482132e-004 1.99309899e-003 7.32985325e-004
      3.96505420e-005 0. 0. 1.28123991e-003 1.01652453e-002
      -1.03529198e-002 -5.58479596e-003 1.15620513e-002 1.07337246e-002
      -1.14513119e-003 1.74853473e-003 -7.39569915e-003 0. 0.
      -5.47855627e-004 -2.06327974e-003 1.99309899e-003 3.17073823e-003
      8.20095185e-004 6.69369956e-006 0. 2.55015417e-004 4.16434556e-003
      1.50458177e-003 -5.12612343e-004 -2.42276350e-003 -1.89860666e-003
      -8.16514157e-003 9.26533714e-003 -1.34135480e-003 -1.52032136e-003
      7.08819600e-003 -2.36325292e-003 7.75868073e-004 -6.19784743e-003
      -1.51623390e-003 4.47216956e-003 4.46911529e-003 3.01897456e-003
      -5.21950703e-003 -2.11505080e-003 -2.84147472e-003
      -2.03076503e-004 -1.11527480e-002 -7.70196645e-003 8.16232059e-003
      5.86995215e-004 -1.68321677e-003 -2.87092145e-004 1.74941053e-003
      -3.14280973e-003 -2.87753344e-003 -2.82462779e-003 2.05801870e-003
      -1.07557839e-003 6.01840112e-003 -1.60794263e-003 -4.57105599e-003
      2.14599376e-003 -2.82308902e-003 2.48448108e-004 -9.44419019e-003
      -1.02601880e-002 -7.45680230e-003 -1.72787590e-003
      -7.17585674e-003 -2.35933019e-003 -9.61273443e-003
      -1.06245438e-002 -5.40437596e-003 -2.30557229e-002
      -1.85895283e-002 -2.80550960e-003 1.58552788e-002 -3.68815055e-003
      2.74549099e-003 -4.88589369e-002 -1.62112843e-002 -1.10189943e-002
      -3.30125391e-002 -2.54875235e-002 -5.22836344e-003 2.33308673e-002
      1.91569477e-002 -1.04112197e-002 -7.04879640e-003 -5.49909845e-003
      -2.51072855e-003 -8.88178963e-003 -9.13381577e-003 3.32191586e-003
      6.66943239e-003 -1.37977174e-003 -2.17554498e-005 -5.00484444e-002
      -1.86189469e-002 -4.62628994e-003 -6.66318974e-003
      -3.59160244e-003 1.40172243e-003 1.40395593e-002 2.15678588e-002
      3.74539644e-002 -7.98275620e-002 -5.94213679e-002 -2.73349695e-003
      -8.61252472e-003 -6.14578510e-003 -8.55953491e-004 5.04317041e-003
      5.52884489e-002 2.13662274e-002 -1.06846631e-001 -1.04645960e-001
      -1.61830667e-005 0. 0. 0. 4.22056392e-003 7.59771466e-002
      1.16866641e-002 -7.34043792e-002 -5.91767989e-002 -1.16582098e-003
      -2.02211947e-003 -7.88870151e-004 -1.54608133e-005 3.00305989e-003
      3.80790457e-002 4.34882231e-002 -6.71408400e-002 -6.68381602e-002
      -7.34704081e-005 0. 0. 0. 1.88322016e-003 6.46233708e-002
      1.60016306e-002 -7.74093419e-002 -9.47091058e-002 -1.66721184e-005
      -2.63448954e-002 -2.93343561e-003 -7.71576655e-004 1.87280905e-002
      7.90688246e-002 5.00437163e-004 -7.09004095e-003 -3.00408714e-002
      3.93766724e-003 -6.79377094e-002 -2.87958439e-002 -1.43983855e-003
      1.99541803e-002 1.97529178e-002 4.63729762e-002 -3.85252982e-002
      -5.46763241e-002 -5.40535730e-005 -1.49233975e-002
      -2.20248848e-003 -6.89040235e-006 7.59907160e-003 6.55460954e-002
      1.68274827e-002 1.99912041e-002 -1.29656645e-003 7.89640006e-003
      -5.67250773e-002 -1.87586304e-002 6.69845799e-003 8.07295647e-003
      2.34875903e-002 -3.38943861e-002 1.13358255e-002 4.73539196e-002
      3.90210375e-003 -8.70866776e-002 -6.82272762e-003 3.63289081e-002
      2.78506670e-002 9.17806011e-003 -2.30123308e-002 2.57139206e-002
      5.02831303e-002 3.61779646e-004 -5.93369342e-002 7.54413521e-003
      4.25724834e-002 2.80510597e-002 -2.84372680e-002 3.42659396e-003
      4.38999124e-002 4.66737300e-002 1.06348535e-002 -5.64152077e-002
      -6.90362975e-003 2.37991940e-002 1.03168860e-002 -9.49094631e-003
      -1.87368430e-002 2.60962583e-002 4.25418243e-002 1.32253040e-002
      -3.92080806e-002 1.36808148e-002 2.89025009e-002 9.70196258e-003
      -2.70528309e-002 -1.27338348e-002 3.61488014e-002 6.53667971e-002
      1.62035841e-002 -6.52786791e-002 1.83571689e-002 6.63508549e-002
      2.36077774e-002 -3.98693532e-002 0. 0. 0. 5.14617364e-004
      6.87925029e-004 1.58744364e-003 0. 0. 0. -2.07432900e-002
      1.92087255e-002 6.36908188e-002 2.37723272e-002 -8.64446908e-002
      3.30652259e-002 5.71825467e-002 1.20288478e-002 -2.13482752e-002
      0. 0. 0. 3.84130399e-003 6.87925029e-004 9.73342976e-005 0. 0. 0.
      3.77551464e-006 0. -1.60503969e-005 -5.92730416e-004
      5.76531980e-004 2.85732071e-003 1.75102253e-003 3.69399240e-005
      3.77551464e-006 -1.50941458e-004 -4.18023883e-005 -1.89592387e-003
      1.80670130e-003 6.17798464e-003 1.15681214e-004 -6.29134895e-003
      7.65031087e-004 -2.99794879e-003 8.30613135e-006 0. 0.
      -1.59930678e-005 -9.68768261e-004 3.57736717e-004 4.47658327e-004
      2.45877927e-005 8.30613135e-006 8.62190151e-004 0. 0.
      -6.02072796e-005 -2.16499832e-003 -1.93013600e-003
      -3.80524737e-003 -4.95292712e-003 -1.78892442e-004 1.25844171e-003
      -7.81026538e-005 -9.90731525e-004 -1.21525570e-003
      -7.20254658e-003 -4.16750787e-003 3.33046820e-003 4.96346643e-003
      7.71169725e-004 -1.72310183e-003 2.69929424e-005 3.12791992e-004
      -2.22446048e-004 -3.41216498e-003 -5.20843873e-003 1.01358513e-003
      -7.43376790e-004 3.09462106e-004 -4.15961695e-004 0. 0.
      -5.07276964e-005 -1.84250460e-003 -1.77164027e-003
      -2.36047432e-003 -2.32740748e-003 -3.89247871e-004
      -8.52656458e-003 -8.18291679e-004 -2.14799020e-005
      -3.38184668e-006 -1.36447867e-004 -2.17531357e-004
      -7.57583790e-003 -2.09968048e-003 -1.41117279e-003
      -4.08024900e-003 -5.17560169e-003 -2.53454462e-004
      -1.37572802e-004 -1.14282675e-003 -2.27975659e-003 3.70456208e-003
      2.47338712e-002 -2.29958328e-003 -3.81891127e-003 -6.01451173e-002
      -1.81731544e-002 7.61807371e-007 -2.07208905e-005 -1.14978735e-004
      3.29545047e-003 2.25686934e-002 -3.05462675e-003 -1.36864586e-002
      -4.22316603e-003 -1.04538666e-003 0. 0. 0. -2.62007263e-004
      1.09679243e-002 -5.74901793e-003 7.24862749e-003 -1.95336994e-002
      -6.67154370e-003 0. 0. 0. 1.24747516e-003 9.34774429e-003
      2.28988361e-002 2.69358908e-003 -7.16995224e-002 -6.04909249e-002
      -4.16416287e-006 0. 0. 0. 1.08082232e-003 2.25293310e-003
      4.04492626e-003 -7.04055652e-002 -6.70891926e-002 -3.42569583e-005
      -4.99419230e-007 0. 0. 0. 2.58169398e-002 1.61590856e-002
      -2.69715544e-002 -1.32099260e-002 -1.21032627e-007 0. 0. 0.
      2.77388724e-004 3.39164659e-002 5.12174517e-002 -1.10970978e-002
      -9.66836046e-003 -2.69797602e-005 -5.66994822e-006 0. 0. 0.
      5.97115718e-002 5.38273714e-003 -3.95435244e-002 -6.14740215e-002
      -9.36445504e-005 -3.05185169e-002 -2.74180947e-003
      -1.57503854e-003 -5.38466091e-004 4.77219634e-002 -1.33601169e-003
      4.59408686e-002 7.36487145e-003 2.79976218e-003 -6.78257868e-002
      -3.39472778e-002 -2.38802545e-002 -2.66049486e-002
      -3.51361558e-003 5.95493540e-002 8.37729592e-003 -2.91384244e-003
      -2.00215756e-004 -4.41274513e-003 -5.43012749e-004
      -6.32987882e-004 -3.02906010e-005 5.26835769e-002 1.67469308e-002
      2.53107455e-002 5.56022907e-003 1.18516051e-004 -3.02635618e-002
      -8.43037479e-003 -9.49481875e-003 -8.24974477e-003
      -7.53037212e-003 -1.68869982e-003 5.32967784e-002 6.07848577e-002
      4.80595091e-003 -5.05206175e-002 -1.02190245e-002 -6.42515207e-003
      -1.46986237e-002 -2.25153356e-003 -8.68843589e-003 3.82683836e-002
      5.51741607e-002 -2.14100280e-003 -2.69761290e-002 3.20780859e-003
      4.13966191e-004 -8.59727617e-004 -4.14658301e-002 -5.04386937e-003
      2.68286690e-002 1.25106536e-002 -5.58060361e-004 -1.69298779e-002
      -3.50404996e-003 -3.85820284e-003 -5.33743761e-003
      -2.52097175e-002 -2.74692029e-002 4.54350957e-004 5.34234010e-003
      -6.90353801e-003 -2.14128252e-002 -1.35493201e-005 0.
      -3.46866145e-004 -3.17627452e-002 -1.54558253e-002 4.71375063e-002
      6.66989908e-002 1.21605601e-002 -2.38175411e-002 1.43979900e-002
      1.75610872e-003 1.76211615e-004 -3.49310525e-002 0. 0.
      1.48195293e-004 4.09557391e-003 -7.62192576e-005 0. 0. 0. 0.
      -2.95099579e-002 -9.35459509e-003 -2.13750638e-004
      -2.00638790e-002 -6.42943308e-002 0. 0. 0. -3.08156069e-002 0. 0.
      1.66436995e-003 4.09557391e-003 -7.62192576e-005 0. 0. 0. 0.
      2.47210801e-006 0. 0. 0. -4.82295174e-004 2.60497490e-003
      2.22921092e-003 -1.97234986e-004 1.76667584e-006 1.13715127e-004
      0. 0. 0. -9.71479458e-005 -4.12702560e-004 -5.21504262e-004
      6.46115339e-004 3.81195248e-004 5.93840123e-005 0. 0. 0.
      5.41974150e-004 2.99034268e-003 2.60497490e-003 1.13954220e-003
      -6.19952771e-005 -9.27885048e-005 0. 0. 0. 1.56929396e-004
      3.34801676e-004 1.61784515e-003 -4.22444427e-004 -7.15276983e-004
      -7.14078924e-005 0. 0. 0. -6.60555452e-005 -4.68087412e-004
      -2.27916375e-004 2.86531472e-003 3.11577064e-003 -4.35296539e-003
      -1.15693756e-003 -3.12333250e-005 0. -9.50549020e-006
      -3.93858027e-005 -3.87169130e-004 2.86531472e-003 -4.35296539e-003
      -5.21277369e-004 0. 0. 0. 1.16699011e-005 1.61548724e-005
      -2.92638695e-004 -1.65061338e-003 -1.42647268e-003
      -1.66083907e-003 -3.03584733e-004 -2.08222195e-006 0. 0. 0.
      -1.13464630e-005 -3.61288170e-004 -1.29494199e-003
      -1.46958407e-003 -2.12079822e-003 -6.38729311e-004 0. 0. 0.
      -2.21935443e-005 7.47866230e-004 -1.46958407e-003 -1.26346026e-003
      -2.12079822e-003 -1.98592618e-003 0. 0. 0. 0. 1.63665900e-005
      1.23550097e-004 -1.59378583e-003 -1.24874536e-003 -1.31487439e-004
      0. 0. 0. -1.48695062e-006 -1.70899384e-005 -4.26305574e-004
      -1.55357807e-003 -2.12079822e-003 -1.98770245e-003 0. 0. 0. 0. 0.
      1.04025647e-004 -5.76575892e-003 -1.45128660e-003 -1.62440992e-003
      0. 0. 0. 0. 2.57228066e-007 -5.56112733e-003 1.56224864e-002
      -1.74715731e-003 -2.57739192e-003 -1.50915866e-005
      -3.05455637e-006 0. 0. 0. 1.56630352e-002 -6.56669261e-004
      -2.57739192e-003 -2.57739192e-003 0. 0. 0. 0. 0. 3.66663095e-004
      1.58852912e-004 -2.57739192e-003 -2.57739192e-003 -1.63556149e-006
      0. 0. 0. 0. 4.28081839e-004 1.41041819e-002 1.78761675e-003
      -2.91852606e-003 -1.55141446e-004 -9.41614144e-006 0. 0. 0.
      1.41060613e-002 -6.18950510e-003 4.18929895e-003 -1.15701987e-003
      -1.01564241e-004 1.04535662e-004 0. 0. 0. -9.98153910e-003
      4.12264519e-004 -1.93898124e-003 -3.20515619e-003 -8.75547266e-006
      0. 0. 0. 0. 3.18078586e-004 2.29203666e-004 -2.23522329e-005
      -2.84057867e-004 8.55319195e-006 9.89678847e-006 0. 0. 0.
      9.36473880e-005 -9.47072913e-005 1.69635355e-003 6.82675047e-004
      6.35517936e-005 -3.28755379e-003 0. 0. 0. -8.59960623e-004
      -1.49638038e-002 1.03802369e-004 4.18289658e-003 4.89840144e-003
      -2.38235970e-003 0. 0. 0. -1.49722239e-002 2.43068396e-004
      1.45248231e-003 2.26201559e-003 2.38392109e-004 -3.25591560e-003
      0. -7.19430100e-005 -2.40421505e-005 6.30969153e-005
      -8.11661375e-005 4.76607168e-003 5.30431978e-003 5.30431978e-003
      -2.27350765e-003 0. -1.58274619e-004 -5.28927303e-005
      -1.92043386e-004 -2.12003626e-002 3.08695526e-005 4.18076990e-003
      4.18076990e-003 6.51768816e-004 0. 0. 0. -2.12003626e-002 0.
      2.55573241e-006 3.11807194e-003 4.18076990e-003 -8.75540485e-004
      0. 0. 0. 0. -4.48939216e-004 1.05177495e-003 4.16887086e-003
      4.18076990e-003 -1.28880295e-003 0. -3.75000382e-005
      -1.25318857e-005 -4.52141714e-004 -3.35660909e-004
      -3.39384787e-005 2.49915966e-003 2.93389871e-003 -3.27096856e-003
      0. -3.06818474e-005 -1.02533604e-005 -3.35660909e-004
      2.43100403e-005 0. 0. 0. 2.08782920e-004 1.60159671e-003
      1.36804790e-003 1.36804790e-003 -6.71533126e-005 -6.85017789e-004
      0. 0. 0. 1.07119777e-004 4.14748007e-004 1.36804790e-003
      1.36804790e-003 -8.08860292e-004 8.74376274e-005 0. 0. 0.
      1.13186805e-004 3.15098587e-004 3.13005480e-003 2.58226041e-003
      3.91743321e-004 -1.42158970e-004 1.54940736e-007 0. 0.
      1.19785735e-004 2.88158451e-004 3.02383676e-003 1.36804790e-003
      1.61340612e-003 -1.51314237e-003 0. 0. 0. 2.02010506e-005
      9.44627463e-005 8.10247438e-004 1.03559345e-003 -1.87603146e-004
      -1.96302170e-003 -6.68375520e-004 0. 0. 0. 4.60746378e-006
      2.46222571e-005 8.47376141e-005 -1.11297902e-003 -4.81830852e-004
      6.88789951e-005 2.01267267e-005 0. 3.37198653e-005 1.24210288e-004
      2.65435223e-003 3.09614488e-003 2.79336469e-003 2.36853419e-004
      -3.16956779e-004 2.63920138e-005 0. 0. 5.92388233e-006
      2.45280797e-004 4.59558796e-003 2.79336469e-003 -1.97020546e-003
      -2.18899851e-003 -2.38169276e-004 0. 0. 0. 0. 5.34826540e-005
      -1.27321447e-003 -2.12324644e-003 -2.18557869e-003
      -1.91100652e-003 0. 0. 0. 0. 2.72007201e-005 -6.86045212e-004
      2.78298114e-003 -1.65058614e-003 -9.20363382e-005 0. 0. 0.
      1.65346828e-005 3.67597607e-003 3.91270127e-003 3.87676829e-003
      -2.04209168e-003 -3.93114693e-004 0. 0. 0. 0. 7.79496564e-004
      5.14966063e-003 -2.80135754e-003 -2.86895153e-003 -2.88924971e-003
      0. 0. 0. 0. 4.84104066e-006 -4.59170988e-004 -8.13324368e-005
      -2.85620871e-003 -2.88924971e-003 0. 0. 0. 0. 0. 1.52402878e-004
      4.66126250e-003 -1.02220837e-003 -4.58991621e-004 0. 0. 0. 0.
      7.26156068e-005 5.35667269e-003 5.48891351e-003 3.31780245e-003
      -2.34053186e-005 0. 0. 0. 3.26170806e-007 7.83025534e-005
      5.53080300e-003 7.99752524e-005 -4.35462315e-003 -4.73610265e-003
      0. 0. 0. 0. 0. 2.11453109e-004 2.21827929e-003 3.14374291e-003
      1.03594805e-003 9.10973322e-005 1.66975060e-005 0. 0. 0.
      3.04042827e-004 5.11005148e-003 5.11005148e-003 1.19382086e-004 0.
      0. 0. 2.08620895e-005 1.71244741e-004 2.33478728e-003
      5.11005148e-003 5.11005148e-003 2.37892009e-003 1.19413162e-004
      2.61870300e-005 0. 2.63007641e-005 1.04272280e-004 1.51915639e-003
      1.10014097e-003 3.76131968e-003 3.76131968e-003 2.61845038e-004
      -2.45734677e-003 0. -4.10657696e-004 -1.37234951e-004
      -2.05099117e-004 -1.90261984e-003 3.76131968e-003 3.76131968e-003
      1.86697883e-003 -2.24910118e-003 0. -9.03446984e-004
      -3.01916851e-004 -2.40108976e-003 3.31537239e-003 3.76131968e-003
      3.76131968e-003 2.11054445e-004 -1.13890169e-003 0.
      -3.17048107e-004 -1.05771200e-004 4.08764681e-005 -1.59231061e-003
      3.76131968e-003 3.76131968e-003 3.48880189e-004 -1.74063491e-003
      0. -7.02680962e-004 -2.34824241e-004 -2.35007773e-003
      -1.87088456e-003 5.85668348e-003 5.82972541e-003 5.87021420e-003
      -3.74640222e-005 0. -1.27603271e-004 -4.26428815e-005
      -2.00857758e-003 -2.13333964e-003 -1.50983702e-004 1.56963186e-003
      1.44070864e-003 -1.76556141e-003 0. -1.04402665e-004
      -3.48896283e-005 -2.13333964e-003 -1.85524137e-003 2.35320581e-003
      4.08398453e-003 6.48184330e-004 -4.79767550e-005 0.
      -9.92469941e-005 -3.31666888e-005 -2.03873776e-003
      -2.13575223e-003 -1.57858318e-004 -4.48101055e-004 3.16892147e-005
      -1.59209955e-003 0. -8.12020808e-005 -2.71363770e-005
      -2.13575223e-003</_>
    <_>
      2.96281476e-004 2.02020630e-003 2.02020630e-003 4.82113886e-004
      8.62363086e-005 0. 0. 0. 6.34004391e-005 1.88959180e-003
      6.32413139e-005 1.12523022e-003 1.99067377e-004 5.87992654e-005 0.
      0. 0. -8.85556045e-004 8.71397788e-005 1.58151134e-003
      2.02020630e-003 1.83682644e-003 2.23107141e-004 0. 0. 0.
      2.97241659e-005 3.29157561e-002 4.11189906e-003 4.60806722e-003
      3.03763244e-003 -1.68653484e-002 -2.89499899e-003 0. 0.
      9.94983502e-003 4.72334577e-005 -9.72700655e-004 1.48139813e-003
      1.34712609e-004 3.14801546e-005 0. 0. 0. -7.09103246e-004
      -9.55671724e-003 2.06817710e-003 -1.54111441e-003 7.04101512e-006
      -1.64581084e-004 -8.92984273e-004 -1.66637765e-003
      -4.03267611e-003 -8.19950830e-003 5.45116328e-003 7.17888633e-003
      3.70322727e-003 -8.71680677e-003 -4.93806880e-003 -4.39360301e-004
      0. 0. 8.52269994e-004 -9.89251491e-003 3.28007853e-003
      2.65460531e-003 -2.97987624e-003 -1.09226322e-002 -2.50266213e-002
      -1.73480008e-002 -3.05953342e-002 -9.92712192e-003
      -6.45985920e-003 3.01237305e-004 -9.89778317e-004 0.
      -5.04434155e-003 -4.88909334e-003 -7.82570150e-003
      -1.36984829e-002 -1.13515276e-002 9.80631039e-002 5.11233136e-003
      5.97142352e-005 0. -6.09345827e-003 -4.10841964e-003
      -5.98806655e-003 -7.90895987e-003 5.72220981e-002 3.54573689e-002
      3.51718329e-002 -6.02881424e-002 -2.55960114e-002 -1.23837210e-001
      -1.21671557e-001 -8.01945180e-002 -9.71937478e-002 3.54573689e-002
      4.70560230e-002 2.13734172e-002 -4.58978899e-002 -2.86981985e-002
      -1.40249461e-001 -1.04417205e-001 -6.11426756e-002
      -5.16361259e-002 8.18627924e-002 9.51931402e-002 5.72427583e-004
      1.54338941e-005 0. -3.21160187e-003 -3.94778559e-004
      3.57196404e-005 3.11551994e-004 7.70847723e-002 8.57683122e-002
      -1.88129221e-003 -7.45538902e-003 -1.28769465e-002
      -1.13072945e-002 0. 1.13011774e-005 1.97400595e-003
      1.04558595e-001 4.35774997e-002 -5.05902767e-002 -5.35035655e-002
      -2.83739492e-002 -1.23550244e-001 -3.02142072e-002 0.
      -2.21707672e-002 4.35774997e-002 8.01385008e-003 -2.34030876e-002
      -8.08538720e-002 -1.52535826e-001 -1.61339134e-001
      -5.86163774e-002 -2.90378202e-002 -2.98822038e-002 8.01385008e-003
      4.06239927e-002 -8.76817107e-003 -8.02236982e-003 -1.07314475e-002
      -6.45271782e-003 0. 3.85695676e-005 1.98345189e-003
      7.54603446e-002 -1.39227463e-002 -1.03238560e-002 -7.26882787e-003
      -8.54637753e-003 -3.56916618e-003 1.95045959e-005 3.30617273e-004
      -1.03852851e-002 -1.58580542e-002 5.53108379e-002 -4.08596322e-002
      -7.05799609e-002 -1.16288990e-001 -1.36551991e-001
      -2.14257836e-002 -2.61194799e-002 7.65765179e-003 1.67140029e-002
      4.56510717e-003 -5.04449010e-002 -6.28718808e-002 -9.33802500e-002
      -8.04633200e-002 -1.72734298e-002 -5.27628437e-002 3.01914401e-002
      4.73201834e-003 -6.07781252e-003 -1.55340158e-003 -4.38375835e-004
      -8.98880171e-005 -1.36645860e-004 1.08448410e-004 -1.66822062e-003
      -5.83654875e-003 -1.39919315e-002 -1.03342708e-003 0. 0. 0.
      1.16782277e-004 6.96110888e-004 1.15471565e-004 -1.34224014e-003
      -2.33079051e-003 -3.59764881e-002 -8.20160098e-003
      -3.45861237e-003 -1.42905023e-003 -5.60892746e-003
      -1.83722761e-003 2.32528360e-003 2.13105162e-003 -3.58750001e-002
      3.58875934e-003 0. 0. 0. -4.55837324e-003 -5.33147855e-003
      3.43787484e-003 2.98344111e-003 1.30491676e-002 -4.64628596e-004
      0. 0. 0. 1.38126823e-004 1.07525918e-003 9.88413114e-004
      1.77549862e-003 -2.55181664e-003 0. 0. 0. 0. 1.64408648e-005
      9.86587838e-005 1.16665622e-004 3.54251324e-006 1.29487273e-006
      5.45603503e-003 0. 0. 0. 7.01892702e-003 -2.83509195e-002
      -2.17012948e-005 -1.65333052e-003 2.95637529e-002 0. 0. 0. 0.
      4.34563524e-004 1.77309790e-003 1.70023635e-003 1.19904053e-005
      1.00712327e-006 -1.91381660e-005 4.40089294e-004 2.33896635e-003
      2.34098546e-003 8.47306801e-004 0. 0. 0. 4.30225526e-007
      2.48554652e-003 -3.76551645e-003 -5.74911805e-003 7.50860141e-004
      -9.80292680e-004 -6.78172475e-003 -1.22923395e-002
      -2.45197467e-003 7.41338590e-004 -9.24040040e-004 -3.30027309e-003
      -1.86521246e-003 2.30450602e-003 1.14664703e-003 0. 0. 0.
      -1.80247866e-004 4.78090495e-002 6.36050827e-005 9.19796806e-003
      -9.89819132e-003 -4.52545332e-003 -7.17364484e-003
      -8.51429626e-003 5.08072414e-003 -2.47006724e-003 8.53638106e-004
      -1.25879387e-003 -2.16124672e-003 -2.57043052e-003
      -3.44075891e-003 -2.46107532e-003 -5.68276970e-003
      -2.17649830e-003 -9.10723174e-004 -9.02386196e-003
      -5.83301904e-003 -2.59089051e-003 4.43886127e-003 -4.38910956e-003
      -8.68813135e-003 -1.25985444e-002 -7.28217838e-003
      -3.17643397e-003 1.28631573e-002 2.64167041e-003 6.61728159e-003
      -3.35039129e-003 -5.69357816e-003 -9.11531679e-004
      -1.11837580e-003 -1.19480176e-003 1.55269727e-003 -4.37831767e-002
      1.53999040e-002 2.07024179e-002 3.20110051e-003 -8.29534605e-003
      -1.65031441e-002 -1.83656290e-002 -1.86499190e-002
      -3.58433425e-002 1.46183986e-002 -5.24276681e-003 -2.62676068e-002
      -8.50607269e-003 -5.00193946e-002 -3.90562303e-002
      -2.62541939e-002 -1.72131862e-002 2.22966578e-002 8.94477516e-002
      -2.83227377e-002 -8.11222419e-002 -2.26877332e-002
      -6.22059517e-002 -3.24591249e-002 -1.64113045e-002
      -7.99513515e-003 1.00140177e-001 1.63382590e-002 -1.71765853e-002
      -5.51634990e-002 -7.95074832e-003 -1.02694891e-001
      -9.39865485e-002 -6.44409135e-002 -4.09957953e-002 1.56777520e-002
      5.84135987e-002 -7.94144049e-002 -1.55293971e-001 -2.27549765e-002
      -1.22110918e-001 -7.70325437e-002 -5.49343191e-002
      -1.97651070e-002 7.55764842e-002 9.75756273e-002 -4.22137566e-002
      -5.16154394e-002 -1.33026419e-002 -4.61831912e-002
      -1.38485208e-002 -1.64577980e-002 -1.99950896e-002 1.10603444e-001
      1.28122270e-001 -9.25188418e-003 -9.27738752e-003 -2.50265747e-002
      -8.50383714e-002 -2.69795433e-002 -4.10822146e-002
      -4.82337959e-002 1.36847526e-001 8.32559764e-002 -1.28768384e-001
      -1.27598092e-001 -2.22529173e-002 -1.41023383e-001
      -3.13883312e-002 -1.06590711e-001 -1.00017749e-001 8.32559764e-002
      2.94204503e-002 -1.74063928e-002 -7.13045001e-002 -1.16603464e-001
      -1.89225927e-001 -5.10653853e-002 -1.60174653e-001
      -1.26308754e-001 3.46114561e-002 8.97930637e-002 -1.33028440e-002
      -2.47823335e-002 -4.38437685e-002 -7.57894292e-002
      -1.74880270e-002 -2.89557055e-002 -6.76219491e-003 7.76595101e-002
      -2.27445271e-003 -1.59947667e-002 -3.14123742e-002
      -4.03588787e-002 -4.13401313e-002 -1.19205387e-002
      -4.11194935e-002 -1.39853107e-002 -1.36968587e-003 5.06058522e-002
      -4.09205668e-002 -4.08224612e-002 -1.02334596e-001
      -1.22791737e-001 -1.69352554e-002 -5.77373095e-002
      -6.02903850e-002 1.73849240e-002 1.08662415e-002 -5.59542999e-002
      -6.44658580e-002 -9.19453055e-002 -7.60620385e-002
      -1.23600885e-002 -4.72078696e-002 1.78738218e-002 1.26010533e-002
      4.70109843e-003 2.40735570e-003 -4.17982088e-003 -6.60128519e-003
      -4.66955127e-003 -1.48297381e-003 -6.83139171e-003
      -1.61857791e-002 -1.58210397e-002 1.85218465e-003 6.36012468e-004
      -2.65076116e-004 -2.23077554e-003 6.80809782e-004 -5.00630075e-003
      -3.49100912e-003 -5.31627424e-003 3.82663356e-003 -3.95366587e-002
      -1.20679038e-002 -5.26371319e-003 -1.23495217e-002
      -1.40892267e-002 -9.30399285e-004 1.13930991e-002 1.53067047e-002
      -1.92300491e-002 1.92961022e-002 -1.36484427e-003 -2.22228770e-003
      -7.77770765e-003 -1.35456631e-002 -9.67291882e-004 3.86553956e-003
      3.20531451e-003 2.15938482e-002 2.56767566e-003 1.60399452e-003
      3.16042057e-003 -9.92092304e-004 -6.34541939e-005 -1.05524687e-002
      -4.52212384e-003 5.40853292e-003 4.46529547e-003 -1.89370485e-006
      0. 0. 0. 7.74835062e-004 1.98246539e-003 1.33053027e-003
      -1.24873004e-005 -1.39768035e-005 3.37808952e-002 5.91941690e-003
      -2.96330592e-003 -1.16545875e-002 -1.53765008e-002 2.95175589e-003
      8.49454571e-003 -1.04501459e-003 2.89625116e-002 -2.57449174e-005
      0. 0. 0. 1.96450506e-003 1.89394352e-003 -2.39812327e-003
      -2.68808450e-003 -2.06991390e-004 -4.40111529e-004
      -2.70549953e-003 -2.15818733e-003 1.61842709e-005 4.22947138e-004
      0. 0. 0. -7.26270955e-005 -4.19764459e-004 6.08999748e-003
      -1.24703255e-003 3.25290184e-003 8.60634167e-003 -1.10596158e-002
      -8.78057349e-003 -3.98994563e-003 -1.28531791e-002
      -4.96332141e-005 -1.18032459e-003 -2.11444730e-003
      -7.47018901e-004 5.72948135e-004 1.15084440e-005 0. 0.
      -6.27360214e-006 -1.48543315e-002 1.51703646e-002 2.56179702e-002
      -1.01487096e-002 -2.86824275e-002 5.18123573e-003 3.41719436e-003
      -2.61458755e-003 3.18813808e-002 2.49208650e-003 -3.94983636e-003
      8.91858363e-004 -5.50617091e-003 -8.56601924e-004 -2.41706939e-003
      -1.08852629e-002 -3.14295781e-003 2.20340167e-004 -6.64034812e-003
      4.48015518e-003 2.87672086e-003 -1.29972689e-003 -1.50362321e-003
      -2.23141210e-003 -1.49316210e-002 -1.70852952e-002
      -1.25465728e-002 -2.91659739e-002 1.41537953e-002 1.25708561e-002
      -1.03116920e-002 6.57102047e-003 -5.62581816e-004 8.87475326e-004
      -8.42328742e-003 1.25433998e-002 5.18455694e-004 3.33606312e-003
      7.85111822e-003 -1.72718253e-003 2.27880664e-003 -1.56237846e-002
      -1.47214718e-002 -8.09914712e-003 1.61500294e-002 1.70066096e-002
      -5.23885041e-002 -3.13215256e-002 -3.82605311e-003
      -4.33650240e-002 -3.20976190e-002 -1.33500006e-002 2.00321041e-002
      2.04769447e-002 1.01491965e-001 -1.92684039e-001 -1.59358829e-001
      -1.90048814e-002 -5.44501096e-002 -2.70260200e-002
      -2.94697471e-002 3.70830111e-002 1.05540805e-001 4.23401967e-002
      -1.61757853e-004 -7.51362965e-002 -1.28026996e-002
      -1.27259672e-001 -1.22309089e-001 -9.85717699e-002
      -3.51873115e-002 6.91799074e-002 1.26428708e-001 -6.58071414e-002
      -1.30328104e-001 -3.43241245e-002 -1.58255920e-001
      -1.15262732e-001 -7.62546584e-002 -9.74993236e-005 1.85964167e-001
      1.45605698e-001 -1.63435757e-001 -1.11023389e-001 -1.29454844e-002
      -4.76105735e-002 -1.17382137e-002 -1.45296425e-001
      -1.34396017e-001 1.50536612e-001 1.75524786e-001 -6.03907462e-003
      -1.73632596e-002 -2.11724360e-002 -7.81567395e-002
      -2.39940770e-002 -1.72395289e-001 -1.80200219e-001 1.71344772e-001
      1.55859530e-001 -1.08685307e-001 -1.00401342e-001 -3.17824036e-002
      -1.83065563e-001 -3.59575562e-002 -7.88637549e-002
      -9.70763713e-002 1.69301346e-001 1.48424953e-001 -3.40243126e-003
      -1.04382224e-001 -1.44920617e-001 -2.14415446e-001
      -8.80106986e-002 -1.40209988e-001 -1.71082079e-001 9.36644003e-002
      9.95839238e-002 1.31204268e-002 -1.69250127e-002 -4.53901403e-002
      -6.60242587e-002 -1.05624031e-002 -5.46702258e-002
      -1.10274345e-001 9.35043320e-002 6.56382181e-003 -3.68608325e-003
      -2.96208113e-002 -4.42876033e-002 -3.73326689e-002
      -5.29065309e-003 -2.57050171e-002 -2.43571531e-002 8.16593971e-003
      1.12501763e-001 -3.12324651e-002 -7.44782612e-002 -1.09744020e-001
      -1.48057148e-001 -3.43555138e-002 -5.36178350e-002
      -8.64800587e-002 3.55765074e-002 2.17034165e-002 -6.14559613e-002
      -8.41481313e-002 -9.89259407e-002 -8.46093222e-002
      -2.03593951e-002 -6.47463351e-002 1.85717121e-002 8.23269691e-003
      -2.91477726e-003 -4.79939766e-003 -6.25122851e-003
      -1.00424616e-002 -6.97594462e-003 2.06178031e-003 -3.06815986e-004
      -5.09670796e-003 -1.02401031e-002 2.71969326e-002 -2.16133287e-003
      -5.88265155e-003 -6.49947766e-003 -6.08322211e-003 1.52657810e-003
      -2.04040878e-003 -8.94006691e-004 1.91451665e-002 -2.32508518e-002
      -2.50116419e-002 -1.64964758e-002 -1.00067630e-002
      -2.96696089e-003 1.71379780e-003 -3.25455330e-003 8.32054880e-004
      4.38176468e-003 1.03394501e-002 -4.88991523e-003 -6.86108693e-003
      -2.76220008e-003 -2.41335877e-003 -4.14327485e-003
      -3.44503816e-004 -7.17158720e-004 3.48185487e-002 4.32869680e-002
      -4.84407926e-003 -9.86545812e-003 -1.80371609e-002
      -3.06239817e-003 5.61230071e-003 -2.66806898e-003 7.79790920e-004
      2.33017504e-002 -7.63454591e-006 0. -1.11324571e-005
      -3.76597491e-005 1.95223698e-003 1.09461288e-003 -2.56503676e-003
      -1.71272142e-003 -4.49507861e-005 2.50673369e-002 2.53495597e-003
      -4.00476903e-003 -1.65736349e-003 -2.53899992e-002
      -1.62572917e-002 -5.05704712e-003 -1.49165690e-002 9.79874432e-002
      -7.14347209e-007 0. -3.56966193e-004 -6.95071416e-004
      1.21092227e-004 -6.97500363e-004 -2.84795067e-003 -7.53670873e-004
      -7.14347209e-007 0. -5.59091895e-005 -2.35121720e-003
      -1.58449379e-003 -3.49167298e-004 3.67119559e-004 1.99145143e-005
      0. 0. -9.08048544e-003 6.91839168e-003 5.64521970e-003
      -1.94868892e-002 2.18015872e-002 1.10625727e-002 -2.31848974e-002
      -1.02775907e-002 1.03597036e-002 0. 0. -1.35093098e-004
      -1.45052781e-003 -3.49167298e-004 1.04283378e-003 4.00010089e-004
      3.36191556e-006 0. 5.32059697e-004 7.23132864e-003 2.38881566e-005
      2.30431836e-002 -8.49465095e-003 -3.82891460e-003 7.15130824e-004
      8.38774256e-003 -2.53445865e-003 -1.69321373e-002 1.69851538e-002
      -1.43492967e-003 2.27690733e-004 -3.84738529e-003 5.29470574e-003
      -7.30785402e-003 -7.02119851e-003 1.18646026e-002 -8.43523536e-003
      -3.78682767e-003 -3.61273275e-003 -3.38442624e-003
      -2.17293203e-003 -5.89783257e-003 -2.06271117e-003
      -1.25468317e-002 -7.00154901e-003 5.37575164e-004 6.72551803e-003
      5.44144888e-004 6.27289619e-003 -5.70003642e-003 9.50920489e-003
      2.91866832e-003 4.90245083e-003 -4.71300213e-003 -8.05889070e-003
      5.40787354e-003 1.48135927e-002 -1.81730406e-003 -2.26318580e-003
      -1.64607051e-003 7.56344665e-003 2.52653025e-002 9.11768060e-003
      1.50515782e-002 -3.06998342e-002 -2.80640703e-002 -1.05545372e-002
      -4.71104570e-002 -4.30596881e-002 -1.10044898e-002 3.63005288e-002
      1.85169596e-002 3.14984731e-002 -1.45552829e-001 -1.50535047e-001
      -2.42763422e-002 -6.21177591e-002 -3.49448808e-002
      -2.28770748e-002 2.64400914e-002 5.31474650e-002 1.16356583e-002
      -3.80095057e-002 -1.21883359e-002 -9.72436834e-003
      -1.58688705e-002 -8.99752323e-003 2.25093085e-002 3.73656563e-002
      2.89650280e-002 5.88002391e-002 -1.21665865e-001 -1.21803068e-001
      -1.72742922e-002 -2.34068595e-002 -4.88089910e-003
      -4.79998440e-003 2.01722570e-002 8.45251158e-002 6.45792186e-002
      -1.29378557e-001 -1.04315951e-001 -1.47103015e-002
      -5.05412705e-002 -1.21387448e-002 -1.11519262e-001
      -1.08827777e-001 8.62361118e-002 7.48454630e-002 -6.73316000e-003
      -1.14564616e-002 -1.07095782e-002 -8.19289312e-002
      -2.72040144e-002 -1.50395155e-001 -1.44925267e-001 6.68004826e-002
      1.01347350e-001 -1.20368093e-001 -1.11982733e-001 -1.29429409e-002
      -4.86276820e-002 -1.08088087e-002 -1.14472494e-001
      -1.04216926e-001 1.05048358e-001 8.17581862e-002 -8.77391081e-003
      -8.06997623e-003 -7.57892523e-003 -6.80421293e-002
      -2.18683686e-002 -1.46477088e-001 -1.43189415e-001 5.38386218e-002
      4.91046794e-002 1.05798552e-002 -2.07163375e-002 -3.24801803e-002
      -6.94876760e-002 -2.13623103e-002 -4.98046540e-002
      -8.45320821e-002 2.41465457e-002 -8.57050717e-003 2.21392233e-003
      -2.76644807e-002 -3.06305643e-002 -3.64903957e-002
      -1.14513058e-002 -4.01604213e-002 -9.49920062e-003
      -1.28045054e-002 3.12431809e-002 1.15549900e-002 -2.05106731e-003
      -4.44780570e-003 -2.36648824e-002 -8.67905561e-003
      -4.75755259e-002 -7.29122981e-002 1.05268871e-002 2.73364643e-003
      9.45072901e-003 -3.26256081e-002 -1.96685968e-003 -1.05304560e-002
      -5.42339776e-003 -1.98434927e-002 -1.40610579e-002
      -7.73180323e-003 -2.22155005e-002 3.76862101e-003 -8.05505272e-003
      -5.17011620e-003 -1.15470611e-003 5.03493997e-004 -5.38736908e-003
      -5.17724967e-003 -3.47458124e-002 2.41729710e-002 1.23173266e-003
      -5.16212033e-003 1.64849882e-003 8.78676889e-004 -6.86614960e-003
      -4.92385216e-003 -1.50622576e-002 2.95834150e-002 -6.75721793e-003
      -5.23504475e-003 -1.00679509e-002 -9.14420816e-004
      -4.86377580e-003 -1.15560868e-003 -3.47364577e-003 3.90350912e-003
      1.57072451e-002 7.30817672e-003 -2.29459652e-003 -7.04659568e-003
      -3.20499623e-003 -2.30912771e-003 -1.60283910e-003 1.77426578e-003
      1.30798644e-003 1.37414346e-002 4.30932306e-002 -7.77957868e-003
      -9.08711087e-003 5.10739768e-003 3.42103350e-003 -9.68356431e-003
      1.92373327e-003 -1.47541808e-002 2.90076360e-002 0. 0.
      -5.11335616e-004 -1.58587215e-003 -1.30813532e-005
      -1.89235935e-003 -2.68965401e-003 -4.50271145e-005 0.
      1.17598595e-002 1.54460222e-003 -4.82169911e-003 -1.80972903e-003
      -2.13620695e-003 5.43302437e-003 1.07352361e-002 2.42039771e-003
      1.11879716e-002 0. 0. -1.12312089e-004 -1.87735655e-004
      -1.30813532e-005 -2.64076772e-003 -3.27118469e-004 0. 0.
      1.89625507e-006 0. 0. -1.69795880e-004 -1.12089782e-003
      -7.30093394e-004 3.49965499e-004 1.85531062e-005 1.89625507e-006
      8.92768148e-003 0. 2.72958237e-003 2.20024474e-002 6.67026499e-003
      4.67456551e-003 -1.24078654e-002 6.08126912e-003 -2.94190664e-002
      3.08849576e-006 0. 0. 0. -1.89702609e-003 -1.23078795e-003
      -1.91109977e-003 -4.23536694e-004 -6.32760839e-006 2.19152658e-003
      0. 0. 0. -2.18487767e-004 8.99873558e-004 7.55773624e-003
      5.50907291e-003 -1.00475468e-003 4.64439392e-004 -1.92874668e-005
      6.13340642e-004 3.07266018e-003 -1.02215749e-003 5.10697067e-003
      -1.58250774e-003 2.47217109e-003 -1.53259644e-002 2.76872976e-004
      -1.20150135e-003 3.14540532e-003 -4.75448498e-004 8.11652280e-004
      2.21349485e-003 6.85043819e-003 1.51680491e-003 1.28700538e-003
      2.97735620e-004 -2.89379041e-005 0. 0. -1.21525060e-004
      2.66910210e-005 3.21730389e-003 5.14609227e-003 1.65745185e-003
      -4.41085175e-003 -2.18375283e-003 -6.55298354e-004
      -1.81949999e-005 -1.06448188e-005 2.34705531e-005 5.28362300e-003
      1.71182267e-002 1.05238715e-002 2.71798042e-003 -4.81929593e-002
      -1.11222276e-002 -3.49710020e-003 -2.97692162e-003
      -7.30517437e-004 1.28121460e-002 5.76392151e-002 4.24790289e-003
      3.41427466e-003 -1.62602082e-001 -1.19478703e-001 -4.43175202e-003
      -5.53907128e-003 -3.80699712e-005 -8.92829429e-003 4.31271121e-002
      4.41528857e-003 -1.78168230e-002 -1.06534967e-002 -4.20834217e-003
      -4.06319450e-004 -9.98311007e-005 0. 2.67060613e-003
      2.44197920e-002 7.55369803e-003 5.09837233e-002 -3.22352685e-002
      -1.43969823e-002 -1.03419530e-003 -4.38088260e-004
      -4.79910086e-004 2.85574177e-004 1.81163717e-002 8.39723647e-002
      4.08686623e-002 -1.24119878e-001 -8.71825665e-002 -2.56429124e-003
      -1.43568953e-002 -3.27509874e-003 -1.22531079e-001
      -1.20633572e-001 4.76947092e-002 4.19005826e-002 -7.40338722e-003
      -8.37624073e-003 -2.31361459e-003 -1.68222003e-002
      -6.67544780e-003 -1.41341686e-001 -1.40408739e-001 4.08453345e-002
      9.25378874e-002 -1.45083396e-002 -8.15456174e-003 -3.75465548e-004
      -1.24195556e-003 -1.43581349e-003 -1.69837978e-002
      -1.92877427e-002 9.66861323e-002 7.06766471e-002 4.37273062e-004
      -5.02382580e-004 -6.41867382e-006 -1.37385202e-003
      -1.85139023e-003 -3.40659842e-002 -6.02815934e-002 3.23731154e-002
      1.00978082e-002 4.00541537e-002 2.59475806e-003 -5.21495065e-004
      -3.44356592e-003 -1.49685843e-003 -3.85188274e-002
      -8.49170834e-002 8.82413611e-003 9.62239038e-003 3.09669673e-002
      -1.80108752e-002 1.05061114e-003 -5.01716393e-004 -3.97305383e-004
      1.27840773e-004 -2.76614306e-003 8.85590352e-003 2.47447193e-002
      1.49849961e-002 1.81588402e-003 9.10359233e-007 -2.66722054e-004
      -5.23545605e-004 -1.13680325e-002 -2.70336941e-002
      -6.08380651e-003 -1.94869377e-002 9.87120252e-003 -2.96184490e-003
      2.17402339e-004 7.81954441e-005 0. -1.41621858e-004
      -3.58688505e-003 -2.77565271e-002 7.17735756e-003 7.86164962e-003
      2.02382030e-003 1.19204901e-003 1.18038617e-003 -2.21564242e-005
      7.62296957e-004 1.82209618e-003 7.03867013e-003 1.40973656e-002
      1.75193429e-003 -2.13266932e-003 -2.29825848e-003 3.68185760e-003
      1.80047622e-003 2.80578068e-004 1.18627417e-004 2.26666983e-002
      -1.85549594e-002 -8.70447885e-003 -1.60615034e-002 2.63786147e-004
      7.78561152e-005 0. 0. -4.72246620e-006 -5.55489864e-003
      -3.20140319e-003 -4.79347026e-003 -6.18650159e-003
      -9.11386800e-004 -3.75369913e-004 0. 0. 0. 1.82482693e-003
      2.60986853e-002 1.19237904e-003 -1.12400176e-002 -4.43476113e-003
      5.98109886e-003 1.06407925e-002 2.36181612e-003 4.24945843e-004
      3.56216691e-002 0. 0. -3.79589881e-004 -6.43124979e-004
      -6.43124979e-004 -1.74802204e-003 -1.43399244e-004 0. 0.
      -3.12268414e-004 -2.44525517e-003 -2.35692761e-003 2.23486772e-004
      1.92192779e-003 0. 0. 0. 3.52439913e-003 0. -1.51637083e-004
      -1.86419906e-003 -6.43124979e-004 -6.43124979e-004
      -1.83505693e-003 -6.22256892e-004 0. 0. -1.61514072e-005 0. 0. 0.
      1.37773270e-004 7.73393374e-004 -2.61093432e-004 -1.85398164e-003
      -1.76659029e-004 -5.29894060e-005 0. 0. 0. 2.79773190e-006
      -7.22610712e-005 -2.13706843e-003 -1.65331131e-003
      -4.68184764e-004 -4.83117219e-005 0. 0. 0. 5.27699245e-004
      2.30496353e-003 -7.23657649e-005 -8.08380428e-004 -4.03724669e-004
      -7.95503089e-004 0. 0. 0. 8.56474071e-005 2.71712750e-004
      -5.68152405e-004 -1.59288943e-003 -2.43380573e-003
      -1.04918327e-004 -1.56960959e-005 0. 0. 5.97283361e-005
      2.67234718e-005 6.40592130e-004 1.44117943e-003 1.43792364e-003
      3.47703472e-002 -8.19749606e-004 -1.88530728e-004 0.
      3.98188922e-006 8.00746056e-006 2.76170642e-004 2.28421181e-003
      3.50471660e-002 -2.88096652e-003 -1.58798124e-004 0. 0.
      5.86121678e-006 8.11379687e-006 -8.08634970e-004 -2.83472938e-003
      -2.81197974e-003 -2.75729620e-003 -2.91946460e-003
      -6.15021971e-004 0. 0. 0. 8.48131549e-007 -6.59954268e-004
      -2.68728193e-003 2.74727587e-002 -1.67631579e-003 -2.07463838e-003
      -8.62775851e-005 -2.15259315e-005 0. 5.56068471e-008
      4.97010653e-004 2.79330090e-002 3.19423862e-002 -2.04956159e-003
      -2.52421410e-003 -7.69689563e-004 -5.03346033e-004
      -1.19578536e-003 -1.59706047e-003 -1.57372288e-005 3.26322019e-002
      -2.33155210e-003 -2.52421410e-003 -2.52421410e-003
      -2.79288688e-005 -5.07593086e-006 0. 0. 0. -9.67520988e-004
      -5.21907408e-004 -2.52421410e-003 -2.52421410e-003
      -2.36202250e-004 -2.50278506e-004 -8.01861403e-004
      -1.16238988e-003 -5.27062002e-005 1.97354428e-004 3.04164924e-002
      -6.47244859e-004 -2.47995602e-003 -4.12030000e-004
      -9.52710572e-004 -2.47995602e-003 -2.47995602e-003
      -2.41559072e-004 3.09005901e-002 -2.65649091e-002 3.48119647e-004
      0. 0. -4.12399881e-004 -1.03381800e-003 -2.47995602e-003
      -1.67957053e-003 -2.69942787e-002 1.85947312e-004 -4.24621510e-004
      -1.47870556e-003 -1.24981423e-004 -5.02776005e-004
      -1.98524073e-003 -2.47995602e-003 -1.41091936e-003 1.96543537e-004
      3.51413219e-005 -5.45701596e-006 0. 0. -2.06051482e-004
      -9.90291126e-004 -2.47995602e-003 -2.47995602e-003
      -6.35257806e-004 -1.05049796e-002 2.47569499e-003 1.44567312e-004
      1.07559890e-006 -6.15043973e-006 -4.94422347e-005 -1.12598797e-003
      -2.36981735e-003 -1.07067516e-002 -1.45470174e-002 7.12168810e-004
      8.66360206e-004 3.73066832e-005 5.37325905e-005 0.
      -4.73632899e-005 -1.01761066e-003 -1.64515693e-002
      -7.69546838e-004 2.02907174e-007 6.07173263e-007 0. 0.
      -3.71779788e-005 -1.84100587e-003 -2.36981735e-003
      -2.20972765e-003 -2.25469959e-003 -2.66592426e-004 4.61788622e-005
      6.65350353e-006 4.97066958e-006 0. -2.52466343e-005
      -6.82394777e-004 -2.32278300e-003 -2.58931220e-002
      -1.68504310e-003 -7.17675837e-004 9.96734980e-006 3.74318370e-005
      0. 0. -4.46648301e-006 -2.57598273e-002 -4.96557099e-004
      -1.94591761e-003 1.57794173e-004 2.35227169e-003 4.79280192e-004
      0. 0. 0. -1.17387390e-004 -2.42007500e-003 -1.29443605e-003
      8.49521137e-004 1.19732620e-004 5.71579003e-005 0. 0.
      -1.32826553e-005 -1.57043326e-003 -2.44237948e-003
      -1.60359501e-004 1.09976085e-004 2.65863026e-003 5.50573051e-004
      0. 0. 0. -7.83564989e-004 -1.29996406e-005 -8.87190865e-004
      -7.96459964e-004 1.33986282e-003 1.21110107e-003 0. 0. 0.
      -5.80862115e-006 -1.94071490e-007 -7.82299554e-004
      -1.33020082e-003 -7.96459964e-004 -1.48350708e-004
      -4.31191525e-004 -2.60072411e-004 0. -1.94071490e-007
      -7.70551793e-004 -2.36600288e-003 -7.96459964e-004 1.74881180e-003
      5.62174828e-004 0. 0. 0. -1.24963670e-004 -4.03084669e-005
      -1.65306614e-003 -1.55140623e-003 5.22624701e-004 1.87659607e-004
      -2.09037971e-005 -5.95804431e-006 0. -2.65108815e-006
      -1.72737287e-004 0. 0. 0. 1.37632480e-004 9.73347516e-004
      -5.29148092e-005 -7.29174993e-004 -6.51377253e-004
      -3.04835825e-003 0. 0. 0. 5.50407131e-005 2.42120383e-004
      -1.62031059e-003 -1.62031059e-003 -2.71366443e-003 6.32814772e-005
      0. 0. 0. 5.68481555e-005 1.58258510e-004 1.73309504e-003
      1.56769832e-003 2.90774740e-004 1.30763467e-004 7.78191023e-008 0.
      0. 6.01624779e-005 1.44727805e-004 1.94764603e-003 1.94764603e-003
      1.81224139e-003 -3.00520821e-003 -1.59387127e-004 0. 0.
      1.01459927e-005 4.74439839e-005 2.58842338e-004 -1.50534941e-003
      -2.11970089e-003 -3.01140617e-003 -3.14016244e-003
      -3.82912142e-004 0. 0. 2.31410218e-006 1.23665477e-005
      -3.47475492e-004 -2.58447160e-003 3.95557523e-004 3.45945264e-005
      1.01086634e-005 0. 1.69358282e-005 6.23847081e-005 1.43922283e-003
      2.51765503e-003 2.31071771e-003 9.44044499e-004 1.01894366e-004
      1.32554087e-005 0. 0. 2.97527436e-006 1.23192469e-004
      2.51765503e-003 2.22805422e-003 -3.04762810e-003 -3.15751717e-003
      -3.07021965e-003 0. 0. 0. 0. 2.68617041e-005 -2.86029768e-003
      -1.48919004e-003 -3.15579958e-003 -2.81364238e-003 0.
      -7.77213791e-005 -2.56876636e-004 -6.97172130e-004
      -4.01895340e-005 -1.87963509e-004 2.31037103e-003 4.83827353e-005
      2.71578142e-006 0. 0. 0. 8.30455701e-006 1.84626179e-003
      2.64677964e-003 2.82869372e-003 2.57632655e-005 0. 0. 0. 0. 0.
      3.91502748e-004 2.82869372e-003 5.51192943e-006 -1.00977566e-004
      -1.87321508e-004 0. -7.44574936e-005 -5.28863864e-004
      -3.40168737e-003 -2.29483913e-003 -1.54477093e-004
      -6.98853109e-004 1.65948350e-005 0. 0. -2.06591340e-005
      -3.69668298e-004 -3.40168737e-003 -3.40168737e-003
      -3.29207745e-003 2.77354498e-003 2.47309014e-004 0. 0. 0. 0.
      -5.08099292e-005 -9.01895182e-005 2.74249283e-003 2.38223444e-003
      1.70743873e-003 5.00946669e-007 0. 0. 0. -5.26160118e-004
      -2.08712439e-003 1.29177130e-003 -1.48810167e-003 1.95518456e-004
      3.92003813e-006 0. 0. -6.86714566e-006 -1.46895088e-003
      -2.66891997e-003 -2.56070448e-003 -1.55478751e-003 9.30537819e-004
      5.20305708e-004 4.57537062e-005 8.38633514e-006 0.
      -3.44574328e-005 -1.43164606e-003 -2.51621427e-003 1.50180236e-003
      2.56652734e-003 5.99597442e-005 0. 0. 0. -1.76044254e-004
      -1.49729173e-003 -1.08771154e-003 -1.02392638e-004 2.27179565e-003
      1.19481445e-003 5.99753512e-005 1.31524557e-005 0. 5.25786390e-006
      -5.62537694e-004 -1.90592255e-003 -1.88285590e-003
      -7.47466052e-004 1.55355257e-003 1.31511872e-004 3.40890329e-005
      0. 0. -2.82141518e-005 -2.53841374e-003 -2.32389057e-003
      -7.47466052e-004 -7.47466052e-004 9.37113247e-004 1.38680552e-004
      0. 0. 0. -1.14190753e-003 -7.47466052e-004 6.13223005e-004
      1.82019547e-003 1.06002255e-004 4.37364542e-005 0. 1.18145806e-006
      -1.23388936e-005 -1.70019921e-003 -1.00711093e-003 4.25442850e-004
      1.63080019e-003 1.75225330e-004 6.59879370e-005 0. 0. 0.
      -4.12237365e-004 -3.50568164e-003 -6.91401889e-004
      -6.91401889e-004 2.88793747e-003 5.61200432e-004 0. 0. 0.
      -5.95726306e-004 -1.56562091e-004 -2.19687540e-003
      -2.54633767e-003 6.02221699e-004 1.86938472e-004 0. 0. 0.
      -1.18656953e-005 -6.38967729e-004 1.69369538e-004 1.73372321e-003
      3.25551053e-004 9.23321568e-005 0. 0. 0. -1.21394878e-004
      -1.16131951e-005 -1.80204279e-005 7.34911509e-006 1.59159317e-005
      1.25259623e-006 0. 0. 0. -1.96676865e-006</_>
    <_>
      0. 0. 0. 0. 0. 0. 0. 0. 0. 1.89313514e-003 7.13306072e-004 0. 0.
      0. 0. 0. 0. 2.42515365e-004 0. 0. 0. 0. 0. 0. 0. 0. 0.
      2.10895166e-002 6.72978982e-002 6.72978982e-002 6.72978982e-002
      6.72978982e-002 0. 0. 0. -1.05044562e-002 3.73329688e-003
      2.02646339e-003 8.97597172e-004 0. 0. 0. 0. 0. 1.60896871e-003
      2.41367090e-002 1.50311738e-002 2.32767384e-003 0. 0. 0. 0. 0.
      1.34664671e-002 2.53336653e-002 4.75810207e-002 5.02274781e-002
      1.26087619e-002 1.16187586e-002 0. 0. 0. 4.31428576e-004
      -1.50710782e-002 -2.03093644e-002 -1.63079519e-002 6.86039682e-003
      1.03300791e-002 0. 0. 0. -1.50710782e-002 2.52113100e-002
      7.09929038e-003 5.61430759e-004 0. 0. 0. 0. 0. 1.41673852e-002
      3.91689315e-002 -1.26875110e-003 -1.21059967e-003 0. 0. 0. 0. 0.
      2.14750916e-002 9.51757282e-003 5.69728017e-003 -2.98360530e-002
      1.47152285e-003 2.90043326e-003 0. 0. 0. 3.83353308e-002
      1.12695072e-003 -4.70084026e-002 -7.53095523e-002 4.95592831e-005
      4.73432592e-005 0. 0. 0. 1.12695072e-003 2.56285779e-002
      -7.40839634e-003 -3.74969631e-003 0. 0. 0. 0. 0. 2.27628890e-002
      -1.00047607e-002 -1.73004214e-002 -8.12500250e-003 0. 0. 0. 0.
      1.16266099e-004 1.67717095e-002 1.79550163e-002 -6.78279847e-002
      -6.25896677e-002 -5.19490932e-005 -3.99373996e-004
      -1.97697460e-004 0. -2.49325589e-004 3.15845571e-002
      1.02714933e-002 -7.67149925e-002 -7.11987764e-002 -9.95572656e-004
      -2.30771042e-002 -1.28545193e-002 -8.36478372e-004
      -2.53165257e-003 1.02714933e-002 -3.30393054e-002 -7.07729533e-003
      -2.72361981e-003 0. -1.56180945e-003 -2.16712127e-004
      -1.59171759e-003 4.17358999e-004 -6.23537740e-003 -1.66131929e-002
      -7.40499381e-005 0. 0. -1.46334190e-002 -9.39085789e-004
      -6.15836959e-003 4.75135352e-003 -6.57931110e-003 2.38705869e-003
      -3.56601700e-002 -1.81980394e-002 -7.33333465e-004
      -5.27063981e-002 -1.34101436e-002 -5.41591691e-003 1.88384037e-002
      2.38705869e-003 2.38705869e-003 -2.36472290e-004 -8.30460631e-005
      -1.53511610e-005 -7.13724494e-002 -3.95378936e-003
      -1.03915036e-002 6.90804943e-002 2.38705869e-003 -1.52166402e-002
      0. 0. 0. -4.90429178e-002 -2.13730312e-003 -1.29719255e-002
      7.80884875e-003 -1.34624848e-002 1.98121159e-003 0. 0. 0. 0. 0.
      9.92290443e-004 3.53961904e-003 4.47111251e-003 -5.91672608e-004
      0. 0. 0. -1.21698439e-001 -7.14096939e-003 -2.63290101e-004
      5.39790690e-002 -2.05678362e-002 2.23487727e-002 0. 0. 0.
      2.17355378e-002 8.50592926e-003 5.86517826e-002 6.41824231e-002
      5.37345260e-002 5.41148882e-004 0. 0. 0. 0. 0. 3.45407898e-005
      2.35605007e-003 1.22830621e-003 0. 0. 0. 0. 0. 0. 0. 0. 0.
      -1.08618746e-002 0. 0. 0. 7.43501559e-002 4.08927128e-002
      7.43501559e-002 7.43501559e-002 1.51105402e-002 0. 0. 0. 0. 0. 0.
      0. 0. 0. 0. 0. 0. 0. 0. 0. 0. 0. 0. -1.13207567e-002
      -3.28191854e-005 3.61629054e-002 4.90334630e-002 1.31305525e-004
      2.59523224e-002 3.96053009e-002 5.09458641e-003 -9.26371291e-003
      1.44946715e-003 6.32748567e-003 3.28970188e-003 0. 0. 0. 0. 0.
      4.07062646e-004 8.17712117e-003 1.41773717e-002 2.79637054e-002
      8.30570981e-002 7.33728753e-003 6.92618564e-002 1.79642215e-002
      1.80704724e-002 -3.09477430e-002 -1.71458843e-004 6.56899484e-003
      3.16606499e-002 1.53545616e-002 1.95656903e-002 8.18829332e-003
      1.55139053e-002 3.77714820e-003 -4.10575280e-003 5.72636630e-003
      4.74090746e-004 9.20984522e-003 1.05132926e-002 2.43916716e-002
      6.18269062e-003 1.36249065e-002 1.12291351e-002 1.41325807e-002
      -1.80525389e-002 2.15642489e-002 3.55041660e-002 1.83058977e-002
      -1.54156452e-002 2.19633095e-002 2.80703194e-002 2.96330806e-002
      -2.18903292e-002 -1.71327367e-002 -4.15854044e-002
      -3.62492427e-002 1.02586076e-002 1.65876485e-002 1.49817606e-002
      3.90478447e-002 3.81338634e-002 -1.42833143e-002 2.21367255e-002
      3.08686227e-004 -1.69880223e-002 3.43200541e-003 3.11750988e-003
      2.06007995e-003 5.98184904e-003 9.97206476e-003 3.47683728e-002
      2.77851373e-002 -4.50496264e-002 -4.78238091e-002 -5.23574708e-004
      -1.07800392e-002 -2.71047087e-004 8.25998432e-004 3.34800291e-003
      2.06167456e-002 2.02320665e-002 -5.34602068e-003 -2.87833735e-002
      2.87877931e-003 1.65878446e-003 4.52304212e-003 1.83212031e-002
      3.84870805e-002 4.67960648e-002 1.30620282e-002 -6.61649555e-002
      -8.91079083e-002 -1.56100537e-003 -1.75928641e-002
      -5.81279513e-004 2.12955079e-003 1.70417111e-002 1.30620282e-002
      2.81486213e-002 -6.39878288e-002 -4.13567461e-002 -3.27809161e-004
      -2.38627754e-003 -2.89403513e-004 -9.86548821e-006
      -1.61211312e-004 3.05462629e-002 3.67686502e-003 -6.32420033e-002
      -3.62836570e-002 -7.04042567e-003 -3.53247672e-002
      -9.70886834e-003 -4.53273038e-004 -2.42456188e-003 2.05141064e-002
      2.88647395e-002 -8.03138763e-002 -6.96763918e-002 -5.88620431e-004
      -3.53505299e-003 -3.87214794e-004 -1.19490214e-004 1.63444388e-003
      4.14180793e-002 1.06198294e-002 -7.79885799e-002 -6.87179416e-002
      -9.47830454e-003 -4.65882123e-002 -1.95561871e-002
      -4.63006925e-003 -9.04808007e-003 1.06198294e-002 -2.31853817e-002
      -2.35011093e-002 -1.34228403e-002 -1.03949076e-002
      -6.15777075e-002 -1.52549697e-002 -1.81675632e-003 9.43394471e-003
      1.63267262e-003 3.50502064e-003 1.31206568e-002 8.60170741e-003
      8.18588713e-004 -6.70900941e-002 -3.34188738e-003 1.98132521e-003
      3.71810161e-002 1.00030033e-002 3.80086969e-003 -3.19744237e-002
      -2.28626858e-002 -1.44879064e-002 -9.93594453e-002
      -2.69759987e-002 -1.03665879e-002 9.01664607e-003 5.86752454e-003
      2.07369984e-003 4.03433777e-002 3.48256296e-003 1.84363208e-003
      -1.16460316e-001 -9.11387149e-003 -1.63062091e-003 7.09409118e-002
      1.86084700e-003 -2.65485793e-002 1.12083023e-002 1.50065823e-002
      4.09552734e-003 -7.94743523e-002 2.98613240e-003 2.64369510e-002
      4.19860147e-002 -1.47930905e-002 -1.86431035e-002 3.11630312e-003
      1.54154170e-002 8.23191553e-003 2.48118900e-002 6.13355637e-003
      4.62353341e-002 3.67785692e-002 -1.28485998e-002 -3.73147950e-002
      2.86870059e-002 3.33113708e-002 6.40438823e-003 -1.39925405e-001
      -7.08560646e-003 2.65140589e-002 5.37313186e-002 -5.20947501e-002
      -2.14812700e-002 1.88874044e-002 3.92205864e-002 3.46278935e-003
      -5.55971498e-003 2.25713011e-003 7.08401650e-002 5.70230596e-002
      7.06029544e-003 -2.18965840e-002 3.78482323e-003 3.23051065e-002
      1.87733360e-002 8.89674388e-003 7.14942208e-003 6.91516772e-002
      2.35517956e-002 -3.00828908e-002 0. 0. 0. 0. 0. 0. 0. 0. 0.
      -4.91469167e-002 -3.50280898e-004 5.85311241e-002 -7.48381484e-003
      4.70418446e-002 2.60836142e-003 8.55788216e-002 4.43618707e-002
      1.13083953e-002 9.06904825e-005 0. 0. 0. 0. 0. 3.71660036e-003
      4.86294366e-003 9.68698936e-004 6.25638699e-004 5.38044469e-003
      5.38044469e-003 3.59054568e-004 5.11957405e-005 0. 0. 0.
      1.45151527e-004 -8.65991935e-002 -2.22492274e-002 7.74302986e-003
      5.09459749e-002 1.26989605e-003 1.07216649e-001 1.94240436e-002
      5.42088971e-002 -6.46352246e-002 2.70548946e-004 5.19321021e-003
      5.38044469e-003 4.31111688e-003 1.22807943e-003 0. 0. 0.
      4.78660077e-005 -4.03271653e-002 3.20524871e-002 6.27627075e-002
      1.07269011e-001 1.10601897e-004 6.23959266e-002 3.44574228e-002
      1.35589605e-002 -5.93581907e-002 -6.06776029e-002 -1.20219076e-003
      1.66299883e-002 1.36934696e-002 -4.90955599e-002 2.43957266e-002
      4.39158715e-002 5.61026633e-002 -3.55914608e-002 -4.90879966e-003
      -9.07759927e-003 2.33001751e-003 6.40052464e-003 2.88963225e-003
      1.73019506e-002 6.10959008e-002 6.86267689e-002 7.46366614e-003
      -3.12241614e-002 2.92851087e-002 5.22386506e-002 2.15491634e-002
      -1.25618484e-002 2.22798493e-002 3.64508070e-002 2.96160411e-002
      -3.03846523e-002 -3.63929942e-002 -2.37887558e-002
      -1.39102349e-002 1.31613398e-002 1.58919916e-002 1.71280205e-002
      4.59815338e-002 5.65261953e-002 -2.87280641e-002 7.62803433e-003
      1.67495775e-004 -9.91007034e-003 1.25299999e-003 -6.61649392e-004
      5.14795724e-003 2.25406494e-002 6.34900704e-002 1.93411075e-002
      8.93936306e-003 -4.47223261e-002 -4.47173491e-002 -1.57880306e-003
      -1.47767197e-002 -4.70543484e-004 1.99129409e-003 3.60993110e-002
      7.54027255e-003 1.99894756e-002 7.18198670e-003 -3.27508412e-002
      3.66091286e-003 8.80026841e-004 5.81379002e-003 1.70166548e-002
      5.03123626e-002 5.60168810e-002 1.94674581e-002 -6.33344352e-002
      -9.57425460e-002 -9.68359469e-004 -1.69968307e-002
      -3.23310756e-004 1.70037674e-003 2.33340338e-002 3.64254378e-002
      1.93393230e-002 -5.89742176e-002 -3.92758437e-002 -6.65844011e-004
      -4.16830787e-003 -3.22820037e-004 -4.33215930e-004 5.24679990e-003
      2.53728330e-002 -5.58486441e-003 -5.26133887e-002 -3.43077667e-002
      -9.57494415e-003 -6.03848957e-002 -4.41901535e-002
      -2.54466776e-002 -4.01454754e-002 1.46167744e-002 5.47562875e-002
      -8.12423900e-002 -6.92879856e-002 -5.05142147e-004
      -3.79216182e-003 -1.96802474e-004 -2.07542864e-004 1.60104723e-003
      7.40677863e-002 5.69508560e-002 -7.66359493e-002 -6.39558136e-002
      -9.51111130e-003 -5.49151264e-002 -2.64984090e-002
      -1.33174527e-002 -1.90607309e-002 4.18130048e-002 -9.82782152e-003
      2.75847409e-003 -2.06649043e-002 -1.19004147e-002 -8.44482630e-002
      -4.32002582e-002 -2.07240041e-002 -1.93148181e-002 1.27193388e-002
      1.72655266e-002 5.58722205e-002 -2.62246616e-002 1.71691994e-003
      -1.18201941e-001 -1.22812102e-002 3.70279187e-003 3.23343538e-002
      1.87148228e-002 2.05600429e-002 -2.82245781e-002 -2.18260791e-002
      -1.40213789e-002 -9.95187089e-002 -3.31112966e-002
      -1.71594247e-002 8.00320972e-003 4.06512339e-003 7.98446219e-003
      4.14295159e-002 -5.14282985e-003 2.05696817e-003 -1.24937519e-001
      -1.67776216e-002 1.14898710e-003 7.20625743e-002 -2.25657178e-003
      -2.29572579e-002 4.41238023e-002 3.41300219e-002 4.09745611e-003
      -1.24502644e-001 -5.79813635e-003 3.05592865e-002 3.79419215e-002
      -2.16428973e-002 -3.00348457e-002 3.40617932e-002 6.37792796e-002
      -9.21440125e-003 -2.08532531e-002 1.85145321e-003 4.77320850e-002
      2.71084514e-002 -5.50490208e-002 -1.99385267e-002 4.44256254e-002
      3.26546058e-002 6.44457061e-003 -1.34577140e-001 -1.86772328e-002
      3.83897312e-002 4.90360819e-002 -4.27505150e-002 -3.47657613e-002
      2.27755345e-002 4.66684103e-002 1.78165000e-003 -5.80722932e-003
      2.96817999e-003 8.60685855e-002 6.53782561e-002 -3.75464233e-003
      -4.69588563e-002 2.15333756e-002 7.57891908e-002 -1.69128403e-002
      2.83429343e-002 -1.22563010e-002 6.72907382e-002 -9.44442363e-005
      -9.31838006e-002 1.88911526e-005 0. 0. 3.56217356e-006
      1.00213831e-004 4.63286997e-004 5.81406616e-003 3.14104650e-003
      2.69674027e-004 -6.90082461e-002 7.45913666e-003 6.71272650e-002
      -1.05096055e-002 4.20603678e-002 5.97849954e-003 1.19704150e-001
      5.02548665e-002 -2.19408367e-002 5.34713990e-006 0.
      4.66760248e-004 6.13864686e-004 2.52357312e-003 5.81406616e-003
      5.81406616e-003 3.50614567e-003 1.05503619e-004 1.14461263e-005
      1.14742201e-003 5.38593717e-003 5.38593717e-003 4.91990894e-003 0.
      0. 0. 0. -5.54796048e-002 -1.59298256e-002 1.10013932e-002
      6.37643859e-002 1.48149179e-002 9.28125530e-002 2.29464974e-002
      4.42056134e-002 -1.16625503e-002 0. 0. 1.36412855e-003
      5.38593717e-003 5.38593717e-003 3.76514276e-004 0. 0. 0.
      -7.56895393e-002 -4.47333716e-002 -1.95587017e-002 3.31181549e-002
      -2.74637714e-002 6.35101572e-002 3.19522396e-002 2.23651901e-002
      -5.70514761e-002 -4.94676791e-002 4.39666770e-003 2.03697477e-002
      1.94252227e-002 -3.31482068e-002 2.48652622e-002 4.12471779e-002
      5.54832853e-002 -2.15439200e-002 9.44709498e-003 -1.62278861e-002
      2.20309873e-003 1.21358084e-002 1.08141303e-002 1.61911845e-002
      6.50129542e-002 8.40472728e-002 2.54415870e-002 -5.55932336e-002
      -2.58058105e-002 -2.57582637e-003 1.42940022e-002 -1.49575518e-002
      2.71339826e-002 4.22252826e-002 3.67728174e-002 -3.49125750e-002
      -1.11946166e-002 -2.13615056e-002 -9.29504633e-003 6.74459711e-003
      1.20124845e-002 1.72328781e-002 5.63917421e-002 7.03672320e-002
      1.69206643e-003 1.94293465e-002 3.44883680e-004 -9.61346459e-003
      3.67580820e-003 3.38554120e-004 4.43803938e-003 2.42962688e-002
      7.71122128e-002 3.74382101e-002 1.49626918e-002 -3.74976099e-002
      -4.34256457e-002 -8.63257796e-004 -1.92841459e-002
      -4.19934979e-004 2.54834001e-003 2.48282496e-002 1.84799060e-002
      1.18917618e-002 -1.20171821e-002 -3.63440230e-003 2.36027315e-003
      1.86206622e-003 5.43047627e-003 2.50694361e-002 5.09088859e-002
      1.74928699e-002 2.43065488e-002 -2.50658430e-002 -2.02406980e-002
      -1.26600231e-003 -1.68917440e-002 -3.84422659e-004 2.69932044e-003
      2.01796498e-002 2.68257428e-002 3.42977121e-002 -5.22072166e-002
      -3.56636643e-002 -3.93537484e-004 -5.46304882e-003
      -1.82696211e-004 -4.74729401e-004 -1.63698583e-004 3.97213586e-002
      -8.68017960e-004 -4.82515059e-002 -2.85776816e-002
      -9.22906399e-003 -5.85984252e-002 -3.54182310e-002
      -2.42110938e-002 -3.24535891e-002 8.78510298e-004 3.30071077e-002
      -2.18821615e-002 -1.49187511e-002 -4.19479562e-004
      -4.20395751e-003 -1.79286144e-004 -1.86062956e-004 6.85492647e-004
      3.45017612e-002 2.96536330e-002 -1.55575508e-002 -1.13195917e-002
      -6.85925735e-003 -3.47938798e-002 -1.67519599e-002
      -1.23604685e-002 -1.60738304e-002 2.51965784e-002 1.43689755e-002
      -4.83432971e-003 -1.59977712e-002 -1.17677376e-002
      -8.24174359e-002 -3.60375978e-002 -1.83256790e-002
      -1.03988945e-002 1.73668750e-002 2.63382811e-002 6.92337528e-002
      -9.37885605e-003 2.59156077e-004 -9.70016867e-002 -6.83694053e-003
      7.04068504e-003 4.09176648e-002 2.42435914e-002 1.12155229e-002
      5.76312188e-003 -9.48419329e-003 -1.12669114e-002 -5.60058206e-002
      -2.14257762e-002 -1.21119833e-002 -1.20858522e-002 8.23478308e-003
      -1.04530260e-003 4.95744646e-002 -1.52849662e-003 2.46508070e-003
      -6.15736581e-002 -4.16862266e-003 6.37645833e-003 1.22980308e-002
      -2.41929479e-003 -2.48810574e-002 6.26319498e-002 4.70963679e-002
      3.24274413e-003 -7.74502531e-002 1.29720615e-003 4.27083112e-002
      3.69517505e-002 -1.44656459e-002 -2.05857269e-002 4.03144583e-002
      5.90217225e-002 -3.65580805e-003 -4.89307847e-003 5.03776455e-003
      4.71640490e-002 2.75404118e-002 -4.26547006e-002 -6.71171118e-003
      5.53025901e-002 4.08832133e-002 7.36941444e-003 -3.83797027e-002
      1.18003238e-003 2.38615070e-002 1.28434906e-002 -1.63850579e-002
      -4.32119295e-002 3.25265341e-002 5.28907813e-002 5.54661406e-003
      -1.17141483e-002 4.51258849e-003 2.46016085e-002 -1.54063071e-003
      -5.70626259e-002 -9.86985955e-003 2.63570976e-002 6.80476278e-002
      -9.62753780e-003 3.04455701e-002 -1.62060931e-003 6.85297251e-002
      -4.84506221e-004 -7.98964500e-002 0. 0. 1.27741823e-003
      2.82153091e-003 5.70660084e-003 5.70660084e-003 5.70660084e-003
      8.15893058e-004 0. -7.79130608e-002 1.71345677e-002
      7.24843666e-002 -3.41819949e-003 -6.88043842e-003 -1.60093661e-002
      2.72452794e-002 -2.35913061e-002 -8.58426839e-002 0. 0.
      6.20714214e-004 4.17413423e-003 5.70660084e-003 5.70660084e-003
      2.42360053e-003 0. 0. 0. 0. 3.22790438e-005 1.06226397e-003
      5.20032179e-003 2.80906633e-003 2.67759664e-004 0. 0.
      -4.88592051e-002 -2.40742806e-002 -3.18607949e-002 7.19693955e-003
      2.63061770e-003 8.43889639e-002 1.16631072e-002 5.79926334e-002
      -1.84753798e-002 0. 0. 0. 8.72762030e-006 5.20032179e-003
      5.20032179e-003 5.20032179e-003 2.94408906e-004 0.
      -1.58529729e-002 0. -4.67348618e-005 -4.18042880e-004
      -1.94809977e-002 4.93002404e-003 6.37974078e-003 5.95174218e-003
      -1.28224641e-002 -5.09127304e-002 -1.55850416e-002
      -1.37643982e-002 -8.76272825e-005 -4.39588167e-002 2.38001700e-002
      4.20197733e-002 6.07869215e-002 -2.24755295e-002 1.31437387e-002
      -1.68306194e-002 -9.24189389e-003 -4.18618642e-004
      -8.52601510e-003 1.17400419e-002 6.28908277e-002 8.17241147e-002
      1.36444643e-002 -1.10756876e-002 0. -1.71959455e-005
      -1.31696317e-004 -3.08025000e-003 3.28235049e-003 9.32444539e-003
      1.31057901e-002 -3.27446125e-003 -2.53762444e-003 0.
      -7.81633935e-006 -7.59806280e-005 -1.34014967e-003 3.43434833e-004
      1.71808563e-002 3.54882181e-002 1.68724526e-002 3.83124943e-003
      -3.36884242e-003 -8.10343947e-004 3.61252984e-004 -4.16967581e-004
      2.35207356e-003 2.17872486e-002 7.30254799e-002 3.99300549e-003
      3.64636537e-003 -3.43094510e-003 -3.09436629e-003 -5.55132166e-004
      -6.67330623e-003 -2.70218909e-004 2.92370887e-003 3.17698643e-002
      3.64636537e-003 5.35248080e-003 0. 0. 0. 0. 0. 4.63455357e-003
      2.22622640e-002 1.87601168e-002 2.58234404e-002 0. 0. 0. 0. 0.
      9.60730598e-004 6.96945004e-003 3.03567667e-002 1.50585175e-002
      -3.16274888e-003 -2.22144299e-003 -2.14412357e-004
      -2.69343262e-003 -9.89656837e-005 -4.06656123e-004
      -1.18992342e-004 1.50585175e-002 -8.78847390e-003 -3.03690974e-003
      -2.20642099e-003 -3.26375058e-003 -3.05641796e-002
      -3.10900100e-002 -2.55277716e-002 -3.36627848e-002
      -8.78847390e-003 3.06064393e-002 0. 0. 0. -5.05631731e-004 0.
      -8.78218707e-005 -2.56378145e-004 3.14354561e-002 2.71280501e-002
      6.40590879e-005 0. 0. -9.08873323e-003 -9.07260552e-003
      -8.69918242e-003 -9.51987971e-003 2.30131857e-002 6.86461339e-003
      2.32793670e-002 -6.65188953e-003 -3.39301908e-003 -2.97248904e-002
      -2.51049623e-002 -1.79380495e-002 -2.25878116e-002 6.85831951e-003
